{"embedding/weights:0": [[0.21078035235404968, -0.11432582139968872, 0.22359570860862732, 0.20026257634162903, -0.24234724044799805, -0.2294744998216629, -0.2536086440086365, 0.26636555790901184, -0.35241755843162537, 0.20197370648384094, -0.08557656407356262], [0.022454742342233658, -0.3664206564426422, 0.4774239957332611, -0.5074248313903809, 0.3344610929489136, -0.24960635602474213, -0.026631664484739304, -0.24438272416591644, 0.34216782450675964, -0.23279832303524017, -0.03655627742409706], [-0.10324148833751678, -0.059034563601017, 0.14531108736991882, -0.13395632803440094, -0.511792778968811, 0.5595370531082153, -0.22807009518146515, -0.2946507930755615, -0.3873186409473419, -0.3603091239929199, 0.07334771752357483], [-0.20285044610500336, 0.09002059698104858, 0.31208086013793945, 0.6657664775848389, -0.1770985871553421, 0.06491240859031677, 0.4434208273887634, 0.030697446316480637, 0.20883318781852722, -0.2640543282032013, -0.14716316759586334], [0.14956191182136536, 0.302184522151947, -0.33763474225997925, -0.1569521725177765, -0.2291070818901062, 0.6214373707771301, 0.13647601008415222, 0.2435048222541809, 0.36663293838500977, -0.1862308382987976, 0.18907387554645538], [0.25158149003982544, 0.08479007333517075, 0.17249973118305206, -0.3594767153263092, -0.21547020971775055, -0.05233214423060417, 0.23820112645626068, 0.14930233359336853, 0.23406873643398285, 0.24730242788791656, 0.13414129614830017], [0.14375004172325134, -0.06937840580940247, -0.16012334823608398, -0.43425804376602173, -0.3813934028148651, -0.3912499248981476, 0.05029787868261337, 0.2260148823261261, -0.2782593071460724, -0.2191498875617981, 0.2949357330799103], [0.05739115923643112, -0.5846068263053894, 0.2876611351966858, -0.17558453977108002, -0.04261895269155502, -0.2587486505508423, -0.2732686698436737, -0.07431884109973907, -0.02168254554271698, -0.31903156638145447, -0.3453879654407501], [0.5237968564033508, 0.2785503566265106, -0.2436574101448059, 0.13217881321907043, -0.26719436049461365, -0.09533397108316422, -0.1875825822353363, -0.1323428899049759, -0.06346998363733292, -0.06718151271343231, 0.5788507461547852], [-0.11369350552558899, 0.1366288661956787, 0.03087874874472618, -0.49618422985076904, -0.1753901243209839, 0.002084350911900401, -0.2639663517475128, -0.30509528517723083, 0.10523317754268646, 0.2293771356344223, 0.1235693097114563], [0.20173171162605286, 0.08183282613754272, 0.3161679804325104, -0.18826422095298767, -0.11228591203689575, 0.0017329156398773193, 0.16690859198570251, 0.25386062264442444, -0.23589368164539337, -0.3436853289604187, -0.046993762254714966], [-0.2815858721733093, 0.3216235637664795, -0.08575135469436646, 0.3966553509235382, 0.02839999459683895, -0.07086703181266785, 0.3654302656650543, -0.3773021101951599, -0.36733418703079224, 0.2057148516178131, -0.4011414349079132], [-0.6703025102615356, -0.1779382973909378, 0.1754162460565567, 0.26905035972595215, -0.3931663930416107, -0.31353873014450073, -0.10385991632938385, 0.01995500922203064, 0.06758159399032593, 0.24450376629829407, 0.34039416909217834], [-0.24734078347682953, 0.027694500982761383, -0.10419798642396927, 0.364525705575943, 0.022365752607584, -0.329847127199173, -0.05262068286538124, -0.11562337726354599, 0.0949719101190567, -0.22230160236358643, 0.48779356479644775], [-0.233794167637825, 0.3003268837928772, -0.3890708386898041, -0.021772285923361778, 0.2678524851799011, 0.2574954330921173, 0.14087209105491638, 0.14917966723442078, -0.09138227999210358, 0.19771669805049896, 0.1505540907382965], [0.1235884428024292, 0.1384955644607544, -0.1780962496995926, -0.6312530636787415, 0.30426162481307983, -0.3656107485294342, -0.5042260885238647, -0.06071104854345322, -0.2291153073310852, 0.04377412423491478, -0.019820192828774452], [-0.19215644896030426, 0.35960689187049866, 0.12577340006828308, -0.5145494341850281, -0.09873378276824951, 0.040578726679086685, 0.18385618925094604, 0.26032018661499023, -0.2351217269897461, 0.003496394492685795, 0.06724066287279129], [0.11382966488599777, -0.25525933504104614, -0.322019100189209, 0.33672672510147095, 0.14822512865066528, -0.34933462738990784, 0.15554100275039673, -0.010685663670301437, -0.4020526111125946, -0.17339855432510376, -0.17472444474697113], [-0.0399429015815258, 0.4075181484222412, 0.2514892816543579, -0.20399008691310883, 0.35012751817703247, -0.11949343234300613, 0.1686030924320221, -0.09806941449642181, -0.03299780189990997, -0.4248570203781128, -0.038944877684116364], [-0.016908390447497368, 0.2707345187664032, 0.22752021253108978, -0.09946725517511368, -0.004620558116585016, 0.3886403441429138, 0.3653971254825592, -0.1999582201242447, 0.4711892604827881, -0.021975858137011528, -0.04556138813495636], [0.42514568567276, -0.08420676738023758, -0.11158744245767593, 0.18383003771305084, 0.15827186405658722, 0.26210135221481323, 0.06429890543222427, 0.024671493098139763, 0.17066894471645355, 0.27660053968429565, 0.27367904782295227], [0.007086478173732758, 0.3783068060874939, -0.43495652079582214, 0.08900895714759827, 0.13632164895534515, 0.04350266978144646, 0.1882474720478058, -0.1585683673620224, -0.12503831088542938, 0.05591990426182747, -0.33733823895454407], [-0.2101026177406311, -0.2405167818069458, 0.07321420311927795, -0.07820379734039307, 0.377742737531662, -0.2025144398212433, 0.0018638584297150373, 0.5692660212516785, -0.22769147157669067, 0.15408974885940552, 0.046318888664245605], [-0.46563661098480225, 0.0344550684094429, -0.39752480387687683, 0.015885042026638985, -0.16492626070976257, 0.26655614376068115, 0.16357824206352234, -0.44694310426712036, 0.021392742171883583, -0.611433207988739, 0.008741780184209347], [0.3090802729129791, -0.03428289294242859, -0.0946725606918335, -0.021325886249542236, 0.1782551109790802, 0.35411134362220764, -0.011295676231384277, 0.265675812959671, -0.19873851537704468, -0.30976951122283936, 0.21828600764274597], [0.2959386110305786, -0.3686859607696533, -0.06130831688642502, 0.08039382845163345, -0.13845717906951904, 0.0485290065407753, -0.01026354730129242, -0.12198090553283691, -0.35352057218551636, 0.19071733951568604, -0.14950346946716309], [0.24296322464942932, 0.34124866127967834, 0.2537011206150055, -0.16702470183372498, 0.18617025017738342, 0.3711046874523163, 0.2353481948375702, -0.19888727366924286, -0.19625523686408997, -0.021167755126953125, -0.26614654064178467], [-0.17417673766613007, 0.27007415890693665, -0.07205821573734283, 0.2569933235645294, 0.44807538390159607, 0.1801137924194336, -0.9805753827095032, 0.16723300516605377, -0.015676802024245262, -0.0871005654335022, -0.6450113654136658], [0.24561947584152222, 0.6613050103187561, 0.4278688430786133, -0.5338994860649109, -0.47016486525535583, 0.058021705597639084, 0.23578773438930511, 0.09804429113864899, -0.17392368614673615, 0.21171969175338745, -0.0684305876493454], [-0.12142950296401978, -0.26947110891342163, -0.3724149465560913, -0.372207373380661, -0.03410816192626953, 0.3005455434322357, -0.35027796030044556, 0.16342541575431824, 0.18687787652015686, -0.1500197798013687, 0.1743474304676056]], "process_times/kernel:0": [[0.6766279339790344, -0.05447588488459587, 1.8667652606964111, -1.8509842157363892, -0.31991320848464966], [1.0342192649841309, -0.6282126903533936, -1.6292423009872437, -1.3557276725769043, 1.5465043783187866]], "process_times/bias:0": [2.013340950012207, 1.2805768251419067, -0.30980098247528076, 0.5142105221748352, 0.02120642550289631], "rnn/multi_rnn_cell/cell_0/lstm_fw_0/kernel:0": [[0.15791700780391693, 0.22723495960235596, -0.010230530053377151, -0.18417216837406158, 0.01707332395017147, 0.10663029551506042, -0.6238418817520142, -0.2677875757217407, -0.9571273326873779, -0.2797228693962097, -0.1864425241947174, -0.1715196669101715, -0.05678978189826012, 0.09563302248716354, -0.14510798454284668, 0.1653028428554535, 0.016875986009836197, 0.10148287564516068, 0.1325681060552597, 0.12866079807281494, -0.020721888169646263, -0.12316689640283585, -0.08807729184627533, 0.4273458421230316, -0.12906412780284882, -0.24832411110401154, -0.46771568059921265, -0.06552604585886002, -0.0018024493474513292, -0.2838514745235443, -0.797136127948761, 0.12904222309589386, 0.0046713994815945625, 0.060879070311784744, 0.1284431368112564, 0.10868356376886368, 0.24834561347961426, -0.1404668092727661, 0.289552241563797, -0.18163488805294037, 0.1731378585100174, 0.1387762874364853, -0.18531399965286255, 0.05192747339606285, 0.03679461032152176, -0.037108272314071655, -0.047359220683574677, -0.037721406668424606, -0.03898691013455391, -0.009170464240014553, 0.0546586699783802, -0.044496990740299225, -0.09071284532546997, 0.10435646772384644, 0.11308381706476212, 0.12580136954784393, -0.07617395371198654, -0.19834119081497192, 0.176812544465065, -0.10056799650192261, 0.034413110464811325, -0.06797314435243607, 0.6123632788658142, 0.14084294438362122, 0.25545668601989746, 0.806878387928009, 1.0004165172576904, 0.3471485376358032, 0.5508098602294922, 0.07803454995155334, 1.2374764680862427, 0.8348749279975891, 1.233059287071228, 0.49150919914245605, 0.44247180223464966, 0.06614973396062851, 0.6742316484451294, 0.2958269715309143, 0.10313915461301804, 0.36551111936569214, 0.2872347831726074, 0.1496558040380478, 1.0470560789108276, 0.7016192674636841, 0.6234409213066101, 0.11829406023025513, 0.28978705406188965, -0.05907778814435005, 0.3031335473060608, 1.0917407274246216, 0.252983957529068, 0.6135969758033752, 0.27943721413612366, 0.49563702940940857, 1.439544677734375, 0.807341456413269, -0.07294874638319016, 0.35091784596443176, 0.05799119547009468, -0.078234001994133, 0.12211976945400238, 0.22073325514793396, 0.7947776913642883, 0.15308456122875214, 0.4287203848361969, -0.011478970758616924, 0.19133760035037994, 0.03300374746322632, 0.06793998926877975, 0.1701146811246872, -0.06279559433460236, 0.03636046499013901, -0.13083936274051666, 0.17814511060714722, 0.42608121037483215, 0.1926574558019638, 0.15819741785526276, 0.19568929076194763, -0.1280701607465744, 0.24857479333877563, 0.2692287266254425, 0.1360601931810379, 0.017809851095080376, 0.12945736944675446, 0.18763229250907898, 0.3262057900428772, 0.7589536309242249, -0.1468943953514099], [-0.047300517559051514, -0.2906121015548706, 0.02058601751923561, 0.06339310109615326, -0.2285185605287552, 0.07879950851202011, -0.32947486639022827, -0.17072421312332153, 0.08758232742547989, 0.20449472963809967, -0.12798179686069489, -0.025084272027015686, -0.1253080517053604, -0.19247634708881378, 0.04723666235804558, 0.2082970142364502, -0.12576033174991608, 0.16157667338848114, 0.08591582626104355, 0.15552185475826263, -0.11837886273860931, -0.19550162553787231, 0.13692954182624817, 0.1222359836101532, -0.22384272515773773, -0.19141614437103271, -0.025634286925196648, -0.0016216414514929056, -0.04424642398953438, -0.06745515763759613, 0.12638331949710846, -0.2289925217628479, 0.019200652837753296, 0.009886026382446289, 0.014047624543309212, -0.0032425043173134327, -0.1785145252943039, 0.0005120804416947067, -0.1506870537996292, 0.043821997940540314, -0.02969658188521862, -0.30779388546943665, -0.005523284897208214, 0.027895934879779816, -0.11403512954711914, 0.12835709750652313, 0.029144378378987312, 0.08555267751216888, 0.02910308539867401, -0.02001131884753704, -0.1364903450012207, 0.14108186960220337, 0.2027435600757599, -0.16933538019657135, -0.08914736658334732, -0.4164886474609375, 0.021425196900963783, -0.06965689361095428, -0.12924465537071228, 0.02648402377963066, -0.08048839867115021, 0.02700180746614933, -0.8637696504592896, -0.004018005914986134, -0.06344068050384521, 0.15647000074386597, 0.31441155076026917, 0.22179155051708221, 0.28157922625541687, 0.1309514343738556, 0.5981201529502869, 0.41535648703575134, 0.3542869985103607, 0.034517526626586914, 0.038482654839754105, -0.011123261414468288, 0.24127565324306488, 0.019482122734189034, 0.03936506062746048, 0.09647826850414276, 0.29616111516952515, 0.04450083523988724, 0.4496324956417084, 0.20055177807807922, 0.03878284990787506, -0.11683855950832367, 0.2678603529930115, -0.03329450264573097, 0.000713092798832804, 0.4719681441783905, 0.2898631691932678, 0.25445231795310974, 0.24713420867919922, -0.01905048079788685, 0.5023239850997925, 0.0010996096534654498, 0.019520984962582588, 0.12374400347471237, 0.17837543785572052, 0.06311582773923874, -0.057636745274066925, 0.14321161806583405, 0.3633359968662262, 0.32705453038215637, 0.4425393044948578, 0.17453958094120026, -0.10662593692541122, 0.16476820409297943, -0.09290637075901031, 0.06404387205839157, -0.11213262379169464, -0.19691956043243408, -0.15824522078037262, 0.20128639042377472, 0.27562791109085083, 0.20278337597846985, 0.13965937495231628, -0.06685635447502136, -0.09533374756574631, 0.2578064799308777, -0.05437584966421127, 0.22013874351978302, 0.3425431251525879, 0.2536143660545349, 0.13661880791187286, -0.09738635271787643, 0.48133155703544617, 0.000708077335730195], [-0.06596149504184723, -0.5133669376373291, 0.005705122370272875, 0.2033809870481491, -0.40718090534210205, -0.19528517127037048, -0.3680063486099243, -0.1965111643075943, 0.748543918132782, 0.394053190946579, -0.3351086378097534, 0.06527411192655563, -0.0022149623837321997, 0.08296037465333939, 0.0627463087439537, -0.06474398076534271, -0.114209845662117, 0.09472231566905975, 0.10072458535432816, 0.39757177233695984, 0.2546570599079132, 0.05660823732614517, 0.02026768960058689, 0.05074722692370415, -0.18896858394145966, -0.06666138023138046, 0.42775073647499084, -0.19715645909309387, -0.031217141076922417, 0.029151715338230133, 1.8265128135681152, -0.22881536185741425, 0.0964626744389534, 0.24295496940612793, 0.47154396772384644, 0.5350785255432129, 0.6715622544288635, -0.40996015071868896, 1.092588186264038, -0.5601696968078613, 0.7567805647850037, -0.45088908076286316, -0.5588144659996033, 0.3892872631549835, 0.03456679359078407, 0.08703465014696121, 0.04221997782588005, -0.037284862250089645, -0.1651746779680252, 0.16711072623729706, 0.0685228630900383, 0.23618730902671814, 0.38431426882743835, 0.09974824637174606, -0.23457685112953186, -0.7432155013084412, -0.09116192907094955, -0.7123372554779053, -0.1799180507659912, -0.3643476068973541, 0.026880484074354172, 0.07864803820848465, -1.5329715013504028, 0.14009462296962738, -0.027702301740646362, -0.3030805289745331, -0.16753605008125305, -0.21205191314220428, -0.2394111007452011, -0.10394059121608734, -0.3426775336265564, -0.3191331923007965, -0.5272162556648254, -0.33397480845451355, -0.160551518201828, 0.11941227316856384, 0.05458466336131096, -0.3475317060947418, 0.03402230143547058, -0.008771021850407124, -0.2655242681503296, -0.1327904909849167, -0.45881128311157227, -0.22075511515140533, -0.28330209851264954, -0.16407528519630432, 0.02193169668316841, 0.045427050441503525, -0.2370179146528244, -0.14242573082447052, 0.02171209268271923, -0.40121984481811523, -0.3123003840446472, -0.22858841717243195, -0.2578507363796234, -0.1988011598587036, -0.09992855787277222, -0.14109060168266296, -0.0520734041929245, 0.17755374312400818, -0.20512978732585907, -0.07939556241035461, 0.06725224107503891, -0.09837150573730469, 0.033664852380752563, 0.14457295835018158, -0.05676259100437164, 0.20317699015140533, 0.05632428079843521, 0.16216064989566803, -0.10210685431957245, -0.02918245457112789, 0.07989360392093658, -0.06606854498386383, 0.10154642164707184, 0.029079649597406387, 0.13127487897872925, 0.0779467299580574, -0.009026718325912952, -0.17353999614715576, -0.27031010389328003, 0.004124639555811882, 0.04661386460065842, -0.0009303249535150826, -0.15167206525802612, -0.16478131711483002, -0.05429059639573097, -0.12257936596870422], [-0.01860649324953556, -0.11445467919111252, 0.02969960868358612, 0.12925678491592407, -0.548599362373352, -0.14453978836536407, 0.02698298543691635, -0.1850338578224182, 0.5361049175262451, 0.48879021406173706, 0.1277427077293396, 0.0380285307765007, 0.11922958493232727, -0.07407325506210327, -0.04569147154688835, 0.1453167051076889, -0.11819662898778915, 0.10039190948009491, -0.24688945710659027, 0.20128381252288818, 0.03988591209053993, -0.1558447778224945, -0.09913814812898636, 0.11702278256416321, 0.16294586658477783, 0.13869412243366241, 0.38174957036972046, -0.28771477937698364, -0.21229133009910583, -0.10542409867048264, 0.48142027854919434, -0.17503009736537933, -0.3015286326408386, -0.30466732382774353, -0.5612934231758118, 0.05617869272828102, -0.4299655258655548, 0.22643844783306122, -1.1005903482437134, 0.740840494632721, -0.5422666072845459, -0.18341025710105896, 0.5482314229011536, -0.3079228103160858, 0.19708660244941711, -0.32843899726867676, 0.1295398771762848, -0.29892849922180176, 0.3778604567050934, 0.243265300989151, -0.6048741936683655, 0.23716267943382263, 0.35321879386901855, 0.013463101349771023, -0.29451224207878113, -0.30860012769699097, -0.06849323958158493, 0.7439401149749756, -0.06813368201255798, 0.33080002665519714, -0.14392708241939545, -0.036296095699071884, -1.13231360912323, -0.042523741722106934, -0.2162933647632599, -0.3785516917705536, 0.04580335691571236, 0.10407146066427231, -0.06978293508291245, 0.06830739974975586, -0.28769126534461975, 0.10635898262262344, -0.08479839563369751, -0.24768711626529694, 0.09468548744916916, -0.05479421466588974, -0.1071925163269043, -0.24497155845165253, 0.10853388160467148, 0.03014579974114895, -0.12487450242042542, -0.12099312990903854, -0.04034345597028732, -0.03378219157457352, -0.10393518209457397, -0.08101419359445572, -0.11858446896076202, 0.19509020447731018, 0.07593522220849991, 0.040471095591783524, 0.1269521713256836, -0.3034316599369049, 0.02399120107293129, -0.12552744150161743, -0.22898703813552856, -0.3755877614021301, -0.1795366406440735, 0.08079846203327179, -0.1270202398300171, 0.18247032165527344, 0.05966409295797348, 0.07238484919071198, -0.01033399160951376, -0.005763677414506674, 0.07131915539503098, -0.02725629135966301, 0.16741998493671417, 0.09397988021373749, 0.16469451785087585, 0.0031163759995251894, 0.04759443923830986, -0.1829935908317566, -0.2546529471874237, 0.09025257080793381, 0.08209750801324844, 0.1263856291770935, 0.16677536070346832, -0.09893990308046341, 0.04877803847193718, 0.010982378385961056, -0.18309767544269562, -0.08731330931186676, -0.04753939062356949, -0.0947532057762146, -0.03298862650990486, -0.09878628700971603, -0.008960376493632793, 0.0566750094294548], [0.20497548580169678, 0.4474733769893646, 0.03499288484454155, -0.0333736427128315, 0.35560962557792664, 0.11255402863025665, -0.08143977075815201, 0.047344524413347244, -0.7003914713859558, -0.5387232303619385, 0.2783789038658142, -0.054204169660806656, -0.05432930216193199, 0.1890801638364792, -0.2274077832698822, -0.0752580389380455, 0.08756467700004578, 0.1517002433538437, -0.059839725494384766, -0.20669904351234436, -0.0734221413731575, -0.08376283943653107, -0.10741893202066422, -0.04495253786444664, -0.010726924054324627, -0.07602537423372269, -0.3699386417865753, 0.11212360858917236, 0.01665879786014557, 0.17124295234680176, -1.2379337549209595, 0.1523042917251587, -0.029128994792699814, -0.05955778807401657, -0.1926177740097046, -0.18325893580913544, 0.08648527413606644, -0.026222703978419304, -0.12772083282470703, 0.09999915957450867, -0.22877757251262665, 0.5005258321762085, 0.010207847692072392, 0.034164417535066605, 0.17835171520709991, -0.07084599882364273, -0.04880243167281151, 0.08278083056211472, 0.19935393333435059, -0.030303968116641045, 0.28194937109947205, -0.40956801176071167, -0.27469292283058167, -0.014317764900624752, 0.1331997960805893, 0.480823278427124, 0.2347922921180725, 0.25758475065231323, 0.18950587511062622, 0.0011228915536776185, 0.02412508986890316, 0.13698621094226837, 1.4828237295150757, 0.0193801149725914, 0.0798911526799202, 0.1750117540359497, 0.044939737766981125, 0.11174275726079941, 0.2722075879573822, -0.15585139393806458, 0.3843420445919037, 0.29691082239151, 0.39626866579055786, 0.053592249751091, 0.0038288908544927835, 0.03617401793599129, 0.12579284608364105, 0.31830060482025146, -0.15361425280570984, -0.006742510478943586, 0.1483444720506668, 0.16974309086799622, 0.11419670283794403, 0.2478177398443222, 0.030925489962100983, 0.1746707558631897, -0.0704222097992897, -0.1706676185131073, 0.31879904866218567, 0.1600770503282547, 0.06936854869127274, 0.20225751399993896, 0.30090391635894775, 0.3485008776187897, 0.12148181349039078, 0.19950345158576965, -0.07486910372972488, -0.0075198328122496605, 0.10565521568059921, 0.04042871668934822, 0.27821221947669983, 0.10218767076730728, 0.21062597632408142, -0.11725800484418869, -0.14690424501895905, 0.1997995674610138, 0.01759623922407627, -0.07173531502485275, -0.08961950987577438, 0.19094280898571014, -0.20914030075073242, 0.06377109885215759, 0.12490982562303543, -0.1508244127035141, -0.2341894507408142, 0.18730571866035461, 0.17158997058868408, 0.24058867990970612, -0.11783790588378906, 0.11415884643793106, -0.056807082146406174, -0.1265583336353302, 0.05812089890241623, 0.07777411490678787, 0.011633721180260181, 0.021326620131731033, -0.08446007966995239, 0.11844327300786972], [0.001516748801805079, 0.13463200628757477, 0.09762422740459442, 0.04969014972448349, 0.06214618682861328, -0.19035957753658295, 0.049270033836364746, -0.0545942448079586, -0.20133523643016815, 0.15521860122680664, -0.10053141415119171, -0.21478435397148132, 0.13247348368167877, 0.034141797572374344, 0.06827837973833084, -0.1521390974521637, 0.08281364291906357, -0.09859957545995712, -0.15377943217754364, -0.07163297384977341, 0.01850622147321701, 0.003939073998481035, -0.16681355237960815, 0.146734356880188, 0.022365611046552658, 0.09194690734148026, 0.1767849624156952, -0.132748544216156, -0.06659647822380066, 0.1479269564151764, -0.14831656217575073, 0.09245999157428741, 0.06375891715288162, -0.056193847209215164, 0.14679688215255737, -0.24279963970184326, 0.036201320588588715, 0.1826760172843933, -0.013776976615190506, -0.05175543576478958, -0.07358849793672562, -0.040359124541282654, 0.24404945969581604, -0.13758550584316254, -0.03686376288533211, -0.062326133251190186, -0.10056643187999725, 0.056324321776628494, -0.07392435520887375, -0.04412192851305008, -0.06289306282997131, 0.10684333741664886, -0.18023061752319336, 0.11929652094841003, -0.12359058111906052, 0.03612962365150452, 0.025432344526052475, 0.14790870249271393, 0.23976783454418182, -0.14990893006324768, 0.11223278194665909, -0.03853895515203476, 0.10900352895259857, 0.1538059562444687, -0.07159412652254105, 0.16481590270996094, -0.14809755980968475, -0.03885170444846153, 0.017649872228503227, 0.14807084202766418, -0.01774667389690876, -0.00019282316497992724, -0.15584485232830048, 0.1053626760840416, -0.005660974886268377, 0.07691400498151779, 0.05760321393609047, -0.039078325033187866, 0.12895484268665314, 0.15338239073753357, 0.011935168877243996, -0.03506903722882271, 0.06211674585938454, -0.1308080404996872, -0.13805632293224335, -0.13588175177574158, -0.07892727851867676, 0.17520631849765778, 0.16310781240463257, 0.0202723890542984, -0.11617301404476166, 0.15313319861888885, -0.005867070518434048, 0.015737203881144524, -0.0860024020075798, -0.044010378420352936, 0.11917232722043991, -0.07662846148014069, -0.19552655518054962, 0.10837920755147934, 0.14255370199680328, -0.17053794860839844, -0.11010319739580154, -0.10342118889093399, 0.3303714692592621, -0.1484040468931198, 0.03205256536602974, -0.08300719410181046, 0.049913741648197174, 0.08575315773487091, 0.010497704148292542, 0.18243612349033356, -0.07961705327033997, 0.07248875498771667, -0.03575246408581734, -0.17635981738567352, 0.0032978372182697058, -0.11588916927576065, -0.15151500701904297, 0.055920593440532684, 0.148711159825325, 0.2043369561433792, -0.046498510986566544, 0.0789918527007103, -0.15438976883888245, 0.12962180376052856, 0.04649355262517929, 0.2567780017852783], [-0.1707836538553238, -0.19055874645709991, -0.006172452121973038, -0.015290770679712296, -0.10059358924627304, -0.1556359827518463, 0.24868157505989075, 0.14720381796360016, 0.25286665558815, 0.0010122888488695025, 0.013657535426318645, -0.09185320883989334, -0.011594654060900211, 0.008536179549992085, -0.1896294206380844, -0.10161503404378891, 0.16833405196666718, 0.0534709207713604, 0.07836389541625977, -0.11202552169561386, 0.08187580108642578, 0.09923700988292694, -0.08333674818277359, 0.14004120230674744, 0.023628942668437958, 0.08995197713375092, 0.1114637553691864, -0.1372005045413971, 0.07197920233011246, 0.01625700481235981, 0.28908130526542664, 0.12961669266223907, -0.10565714538097382, 0.038738854229450226, -0.08855542540550232, -0.06868073344230652, -0.030999235808849335, 0.19938938319683075, -0.04386967420578003, 0.3060545027256012, 0.14345763623714447, -0.1645510345697403, 0.06375548243522644, -0.021213160827755928, -0.053519152104854584, -0.13864150643348694, 0.03980134427547455, -0.027540767565369606, -0.27615249156951904, 0.015047482214868069, -0.17283271253108978, 0.37694644927978516, 0.06780360639095306, -0.09499119222164154, -0.07191859185695648, -0.1489061862230301, -0.24009281396865845, -0.28995728492736816, -0.20127500593662262, -0.06480002403259277, 0.022226136177778244, -0.1705414205789566, -0.18585962057113647, -0.18931140005588531, 0.07397029548883438, 0.11036872863769531, -0.04517504200339317, -0.049274422228336334, 0.05064741522073746, 0.13719536364078522, -0.010326199233531952, 0.08411895483732224, 0.1641470193862915, 0.05113920196890831, 0.022051477804780006, 0.1723514199256897, 0.14974163472652435, 0.13753685355186462, -0.01836870051920414, 0.10172798484563828, -0.057163700461387634, 0.12345094233751297, 0.041634295135736465, 0.027737529948353767, 0.046830542385578156, -0.17339885234832764, 0.15978257358074188, -0.16120034456253052, 0.013016224838793278, 0.008252314291894436, 0.04530921205878258, -0.1281721293926239, 0.10308213531970978, -0.05576220899820328, 0.23582471907138824, -0.06774713844060898, 0.1347745954990387, 0.17496053874492645, 0.010469851084053516, 0.2353542000055313, 0.004054076503962278, -0.128792867064476, 0.23075805604457855, 0.1631593108177185, -0.087936170399189, 0.04182348772883415, 0.12871120870113373, -0.1836688220500946, 0.23765139281749725, 0.06552322208881378, 0.02083141729235649, -0.1543155461549759, -0.027187038213014603, -0.030616093426942825, 0.17957033216953278, 0.008549291640520096, 0.16462813317775726, -0.10076773911714554, -0.09342250972986221, 0.07915383577346802, 0.17158159613609314, -0.16598737239837646, 0.24295033514499664, -0.06828759610652924, 0.11741229146718979, 0.09492972493171692, 0.4631071984767914, -0.05045025423169136], [0.1311740130186081, 0.03972809389233589, -0.10763866454362869, -0.09251298755407333, -0.07793809473514557, 0.004948766436427832, -0.3836934268474579, -0.003671291982755065, -0.19326625764369965, -0.10589157044887543, 0.03973483294248581, -0.03179159760475159, 0.1611824482679367, 0.14295296370983124, 0.05073464289307594, -0.02868887037038803, 0.0700898990035057, -0.12677033245563507, -0.03996733948588371, 0.22848185896873474, 0.13728830218315125, -0.15642182528972626, 0.06415499001741409, 0.07453574985265732, 0.011078422889113426, -0.21854309737682343, 0.02676217071712017, -0.03715982288122177, 0.17407046258449554, -0.08025798946619034, -0.009874418377876282, -0.08108396828174591, -0.13816247880458832, 0.03816455602645874, 0.11319610476493835, -0.016667857766151428, 0.3580990731716156, 0.12049072235822678, 0.30170249938964844, -0.2481631487607956, -0.1689508706331253, -0.07930097728967667, 0.01951730065047741, -0.11379621177911758, 0.18501245975494385, 0.07498174905776978, 0.06818673759698868, -0.018171263858675957, 0.06822190433740616, 0.09631029516458511, 0.3495158851146698, -0.11299940198659897, -0.16336435079574585, 0.1205412819981575, -0.10234184563159943, -0.04403114691376686, -0.17036539316177368, 0.11448202282190323, 0.007646046578884125, 0.0510309562087059, -0.13414689898490906, 0.022910073399543762, -0.1205381229519844, -0.12555769085884094, 0.09704938530921936, -0.14402346312999725, -0.05606629326939583, -0.056259144097566605, -0.0774749368429184, -0.17083477973937988, 0.12804114818572998, 0.016397733241319656, -0.11404041945934296, 0.04276128485798836, 0.07357298582792282, 0.017895951867103577, -0.13636672496795654, 0.029114872217178345, 0.07169442623853683, -0.01595071516931057, -0.0005685355863533914, 0.026340054348111153, 0.11512164771556854, -0.036200594156980515, 0.10205267369747162, -0.1672222763299942, 0.10825920104980469, -0.0929528996348381, 0.10033193230628967, -0.04034502059221268, 0.0007283894810825586, 0.16358718276023865, 0.021266376599669456, 0.03673071414232254, 0.11304190009832382, 0.09806375950574875, 0.011613848619163036, 0.059317100793123245, 0.17959024012088776, -0.1482173055410385, -0.05794363468885422, -0.0065259747207164764, -0.06567253917455673, -0.06339967250823975, 0.11635395884513855, 0.1834152638912201, -0.05682479962706566, 0.009587745182216167, 0.06675629317760468, -0.11802185326814651, -0.11087124049663544, 0.135223388671875, -0.1293238401412964, 0.042046401649713516, 0.08111661672592163, 0.1910068243741989, 0.06319045275449753, -0.06032108515501022, 0.09222900122404099, -0.08002487570047379, 0.05802237242460251, 0.09034495055675507, 0.06484853476285934, -0.10645560175180435, 0.055943604558706284, -0.035749562084674835, 0.04761350154876709, 0.045730110257864], [-0.09410189092159271, -0.310288667678833, 0.1189691498875618, -0.14488917589187622, 0.08566269278526306, 0.17476363480091095, 0.32224488258361816, -0.044468123465776443, 0.07583468407392502, -0.16974066197872162, -0.07407893240451813, 0.17858372628688812, -0.07292643934488297, 0.11417700350284576, 0.017504744231700897, -0.11323563754558563, 0.01892136223614216, 0.00029678770806640387, -0.04087550565600395, -0.21138951182365417, 0.2404969483613968, -0.06874818354845047, -0.13707545399665833, -0.1294821947813034, -0.13519054651260376, 0.21454130113124847, -0.097824327647686, 0.025073058903217316, 0.15210925042629242, -0.08585076034069061, -0.011527927592396736, 0.05298607051372528, 0.30452507734298706, 0.1277417540550232, 0.2042664736509323, -0.022969035431742668, -0.23394984006881714, -0.04087342694401741, 0.666785478591919, -0.04394441470503807, 0.030898425728082657, 0.09925539046525955, 0.10553793609142303, 0.2587868273258209, 0.07081419229507446, -0.1843465268611908, -0.15926548838615417, -0.21317560970783234, 0.171023890376091, -0.18967574834823608, 0.13431595265865326, -0.4355006515979767, 0.15952208638191223, 0.19366930425167084, 0.1754646748304367, -0.010388015769422054, -0.08018030226230621, -0.34960445761680603, 0.1908329427242279, -0.06649456173181534, 0.015005199238657951, -0.15772724151611328, 0.02697451040148735, 0.24123506247997284, 0.051843419671058655, -0.24018879234790802, 0.16890454292297363, 0.06431183964014053, -0.1716337352991104, 0.16506490111351013, -0.10412094742059708, -0.18912704288959503, -0.026401259005069733, -0.07943695783615112, 0.1548440009355545, -0.1888260692358017, -0.09517975896596909, -0.037144120782613754, 0.14175313711166382, -0.04747956991195679, -0.13692538440227509, -0.1640782505273819, 0.006319235544651747, 0.035854604095220566, -0.13421745598316193, -0.010624031536281109, 0.03946064040064812, 0.14518778026103973, 0.055323947221040726, -0.17266984283924103, -0.14440135657787323, 0.12589021027088165, -0.004507673438638449, -0.1960572451353073, -0.1916457563638687, 0.023666147142648697, 0.15048572421073914, 0.0138282161206007, -0.015950744971632957, -0.2357664853334427, -0.14526428282260895, -0.02460278570652008, 0.08894241601228714, 0.10171671956777573, -0.22255049645900726, -0.05517301335930824, 0.03572298586368561, 0.07093792408704758, -0.06682886928319931, 0.06837361305952072, -0.1859184205532074, -0.16536293923854828, 0.08349251002073288, -0.0894828587770462, 0.10111020505428314, -0.10982462018728256, -0.1885877549648285, 0.19524426758289337, -0.0985192209482193, 0.1397683322429657, -0.12829755246639252, -0.0323914960026741, -0.07802972197532654, -0.040768109261989594, -0.05701033025979996, -0.1202857494354248, -0.1954020857810974, -0.06736665219068527], [-0.15683624148368835, -0.18933220207691193, 0.048270441591739655, 0.15730063617229462, 0.14653781056404114, 0.004233238752931356, 0.03245273977518082, 0.009389970451593399, 0.3438015580177307, -0.12077521532773972, -0.18774938583374023, 0.09481503814458847, -0.010895386338233948, -0.03340602293610573, -0.06184513494372368, 0.1121697723865509, -0.10183433443307877, 0.1639324575662613, 0.17370833456516266, 0.14687609672546387, 0.24234430491924286, -0.14085353910923004, 0.07520753145217896, -0.11005295068025589, 0.09344271570444107, -0.0326196551322937, -0.015640346333384514, -0.06291806697845459, 0.05805746838450432, 0.03409142047166824, -0.2716357409954071, 0.04623313248157501, -0.10577663034200668, 0.2973819971084595, -0.19548740983009338, 0.2931295335292816, 0.09546032547950745, 0.047511447221040726, -0.48590174317359924, -0.10116715729236603, 0.06171948462724686, 0.29486510157585144, 0.006551353260874748, -0.13545195758342743, 0.024036122485995293, -0.011657272465527058, -0.06824241578578949, 0.1030518040060997, 0.03345339000225067, 0.07317863404750824, 0.08684148639440536, -0.17266879975795746, -0.009973526000976562, 0.08771637827157974, 0.03175482898950577, -0.11261345446109772, 0.14588068425655365, 0.34586775302886963, 0.18791340291500092, 0.010167639702558517, -0.06070912256836891, -0.006437883246690035, 0.2010241150856018, -0.10366210341453552, 0.1639796793460846, 0.19606055319309235, 0.02275581657886505, -0.007829100824892521, 0.002537741092965007, -0.1500110924243927, 0.041859764605760574, -0.1066526547074318, 0.02120605856180191, 0.15494541823863983, -0.12223371118307114, 0.02449863776564598, 0.07877914607524872, 0.17909590899944305, 0.026158085092902184, 0.056272197514772415, -0.08619818091392517, 0.02354712225496769, 0.065012127161026, 0.03925054147839546, 0.11600789427757263, 0.12885423004627228, -0.05260573700070381, 0.18898603320121765, -0.07678565382957458, -0.11199051141738892, 0.12269999086856842, -0.1409781575202942, -0.1323329657316208, -0.1295265108346939, -0.12339533120393753, 0.20310582220554352, 0.1592678725719452, 0.11333037912845612, 0.0156438946723938, 0.0909481942653656, -0.0002777070039883256, -0.06874600052833557, -0.03676799312233925, -0.07418706268072128, -0.20115427672863007, -0.16717831790447235, -0.006954667624086142, -0.03963616117835045, -0.16824951767921448, 0.12019216269254684, -0.023870617151260376, -0.046696487814188004, 0.026299698278307915, 0.10655845701694489, -0.13466110825538635, -0.026774976402521133, -0.12039471417665482, -0.17732952535152435, 0.09149780869483948, 0.12265440821647644, -0.08145225048065186, -0.24381518363952637, -0.07065307348966599, 0.0656759962439537, 0.12530989944934845, -0.1555853933095932, -0.06660372763872147, 0.016120783984661102], [-0.11357814073562622, 0.028596701100468636, 0.1589617133140564, -0.005758882965892553, 0.001226617256179452, 0.06361100822687149, 0.30556127429008484, -0.060709886252880096, 0.0241392869502306, -0.04101577401161194, 0.15478722751140594, -0.008002731949090958, 0.129388689994812, -0.18324093520641327, 0.034217074513435364, -0.14377735555171967, 0.0019392938120290637, -0.04540235176682472, 0.09176802635192871, -0.16127145290374756, 0.006269261706620455, 0.1070299819111824, -0.13607491552829742, -0.0518849678337574, -0.08710640668869019, 0.09722231328487396, 0.03868743032217026, 0.003050651168450713, -0.12618276476860046, -0.10304812341928482, -0.06347011774778366, -0.07809348404407501, 0.05809736251831055, -0.13282960653305054, 0.01840229704976082, -0.19775310158729553, -0.07106626778841019, 0.062293145805597305, 0.36333248019218445, 0.0874146893620491, -0.05269106477499008, -0.3051033318042755, 0.0038979474920779467, 0.10673084110021591, 0.23858046531677246, -0.08435625582933426, 0.09031340479850769, 0.1160663366317749, -0.16816259920597076, 0.004759236704558134, -0.3777932822704315, 0.570454478263855, 0.07882863283157349, -0.12100883573293686, -0.29104381799697876, -0.033984020352363586, -0.2033161222934723, -0.25409582257270813, -0.2853791117668152, -0.1669657975435257, 0.05642583966255188, 0.023188918828964233, 0.09541624784469604, 0.22791489958763123, -0.17375430464744568, 0.14055012166500092, -0.09446566551923752, -0.027665333822369576, 0.15489168465137482, -0.1314288079738617, -0.024162350222468376, -0.06866905093193054, 0.0904964953660965, 0.10932138562202454, 0.15437038242816925, -0.06365703791379929, 0.035644859075546265, 0.12175024300813675, 0.10197146981954575, -0.043408531695604324, 0.20143084228038788, -0.06799057126045227, 0.07590193301439285, -0.1988661140203476, 0.02739301510155201, -0.05516868084669113, 0.1768442690372467, -0.15359371900558472, -0.11920439451932907, 0.09446997940540314, 0.10911723971366882, 0.14430345594882965, 0.16564282774925232, 0.08925443142652512, 0.055467087775468826, -0.015533890575170517, 0.1524750292301178, 0.04764416441321373, 0.0626649335026741, -0.017246419563889503, -0.02865424007177353, -0.011366119608283043, -0.2019675374031067, 0.04536467790603638, 0.10445836186408997, -0.09686578810214996, -0.10762376338243484, -0.06288234889507294, -0.07885172218084335, 0.11808300018310547, -0.05020418018102646, 0.12753833830356598, 0.08220276981592178, 0.02429511398077011, -0.11128226667642593, -0.12199539691209793, 0.03293494135141373, -0.11541694402694702, 0.025318045169115067, -0.06990522891283035, -0.1500610113143921, 0.007535115350037813, 0.08087057620286942, 0.11302749067544937, 0.1864398717880249, -0.15030117332935333, 0.06950506567955017, -0.03501840680837631], [0.12210948765277863, 0.32717859745025635, 0.20949684083461761, -0.22132720053195953, -0.20248627662658691, 0.025315186008810997, -0.16328005492687225, -0.059264231473207474, -0.2509375810623169, 0.0654621571302414, 0.1818990856409073, -0.11608240753412247, 0.08545737713575363, 0.03946705535054207, 0.02082102745771408, 0.0080106807872653, 0.05370296910405159, 0.08017788827419281, -0.33993855118751526, -0.06000175699591637, -0.2662869095802307, 0.12830358743667603, -0.16134196519851685, 0.02798481658101082, 0.1324542611837387, 0.012446733191609383, -0.2781835198402405, 0.14071892201900482, 0.01890205591917038, 0.0815122127532959, -0.12913303077220917, 0.040653157979249954, 0.09109808504581451, -0.13075858354568481, -0.046058088541030884, -0.026876727119088173, 0.005092008039355278, -0.2075735330581665, 0.05031561106443405, 0.09609214961528778, -0.15650387108325958, 0.08099468052387238, 0.19626601040363312, -0.12577202916145325, 0.15184077620506287, -0.21590903401374817, 0.2604600489139557, -0.10968722403049469, 0.026442432776093483, 0.4120675027370453, 0.03455517441034317, -0.13236232101917267, 0.028089091181755066, -0.1544366031885147, -0.13275699317455292, -0.12140252441167831, -0.055585455149412155, -0.0650714710354805, 0.09625618159770966, 0.19352944195270538, 0.05657041445374489, 0.12112408876419067, -0.2934444844722748, 0.3052559494972229, -0.17279887199401855, 0.10586812347173691, -0.18853652477264404, 0.08204108476638794, -0.08219162374734879, 0.14766450226306915, -0.1472996175289154, 0.10917851328849792, -0.18013986945152283, -0.008964155800640583, 0.13774342834949493, 0.13580991327762604, 0.04869735985994339, -0.024994362145662308, -0.03131029009819031, 0.042853761464357376, 0.0935455933213234, 0.048057910054922104, -0.09531552344560623, -0.16294816136360168, 0.015252417884767056, -0.05237877368927002, -0.18147726356983185, 0.017325956374406815, 0.07951636612415314, -0.053948502987623215, 0.028492024168372154, 0.13534128665924072, 0.14485065639019012, -0.07370582222938538, -0.14487981796264648, -0.13223884999752045, -0.015870781615376472, 0.1241949200630188, 0.01076462771743536, -0.022364391013979912, 0.0628373995423317, -0.0410052165389061, 0.0929887518286705, -0.0420292466878891, 0.11192815750837326, 0.05240287259221077, -0.05610717087984085, 0.08965316414833069, 0.09518628567457199, 0.032017480581998825, 0.15181639790534973, 0.054936204105615616, 0.05366615578532219, -0.02733016200363636, 0.035857632756233215, -0.12887339293956757, 0.04982216656208038, 0.11063585430383682, -0.08340878784656525, -0.10819268971681595, 0.17659609019756317, 0.10381896048784256, 0.2877759337425232, -0.13838717341423035, -0.15877734124660492, 0.01588711515069008, 0.10233744978904724, -0.16116482019424438], [0.12136425822973251, 0.08729337900876999, 0.1131964698433876, -0.1406734138727188, 0.21678631007671356, 0.1401621699333191, 0.07939198613166809, 0.08576422929763794, -0.10329734534025192, 0.08420009166002274, -0.09224601089954376, 0.04912329837679863, 0.013020546175539494, -0.0276029035449028, -0.14049652218818665, 0.059047818183898926, 0.07901129126548767, 0.07929865270853043, -0.002065185457468033, 0.0826076865196228, -0.04893955960869789, -0.02830447442829609, -0.021748313680291176, -0.18661381304264069, 0.0594533234834671, -0.08286091685295105, 0.09880444407463074, 0.13945616781711578, -0.040007561445236206, 0.09525328129529953, -0.219193696975708, 0.04258522391319275, -0.06343947350978851, 0.044090386480093, 0.09714511781930923, 0.004122259560972452, 0.1545507311820984, 0.22512668371200562, -0.057792555540800095, 0.09743833541870117, -0.14561359584331512, -0.09936920553445816, -0.11058979481458664, -0.1054249182343483, -0.07102026045322418, 0.10841305553913116, 0.003161819651722908, 0.039342645555734634, -0.10632848739624023, 0.11536289006471634, 0.07488953322172165, 0.07485465705394745, 0.12546226382255554, -0.13134853541851044, 0.16106688976287842, 0.19160132110118866, 0.08639850467443466, 0.2668743133544922, -0.11748101562261581, 0.056598059833049774, -0.0579584538936615, 0.011321092955768108, 0.260511189699173, -0.2177189737558365, 0.0737442746758461, -0.0892169177532196, -0.19608058035373688, -0.04500794783234596, -0.05978475883603096, 0.029821807518601418, -0.0494987852871418, -0.148313507437706, -0.09375344216823578, -0.00437692878767848, -0.1686631590127945, 0.024248475208878517, -0.07865772396326065, -0.010179542005062103, 0.10306762903928757, -0.1112828180193901, 0.1386505663394928, 0.1755269467830658, 0.11844170838594437, -0.14265234768390656, 0.06701772660017014, 0.16751426458358765, 0.16840027272701263, 0.09191764146089554, -0.16547733545303345, -0.11779070645570755, -0.12378182262182236, 0.15782786905765533, -0.0785924643278122, 0.05057185888290405, -0.16200165450572968, -0.13750135898590088, 0.1383339911699295, 0.09218926727771759, 0.10517077893018723, -0.14946356415748596, -0.16704577207565308, -0.12961722910404205, 0.03597940877079964, -0.005882103927433491, -0.014478997327387333, 0.16033653914928436, 0.035154420882463455, 0.01471361331641674, 0.020160209387540817, 0.03657812625169754, -0.01998315379023552, 0.1795489341020584, -0.06238219887018204, 0.09017696231603622, 0.0829000398516655, -0.10346108675003052, -0.15435925126075745, 0.0735701471567154, -0.0018237446201965213, -0.12328004091978073, 0.03441864252090454, -0.007922539487481117, -0.0969034731388092, -0.14382591843605042, 0.11724450439214706, -0.028668686747550964, -0.0209701806306839, -0.17556500434875488], [0.09773018956184387, 0.1463138461112976, 0.1294555515050888, 0.08031124621629715, -0.06699515879154205, 0.012469206005334854, 0.007103285752236843, -0.04837185889482498, -0.04460367187857628, -0.12344612926244736, 0.0879824310541153, 0.14526033401489258, -0.001392230624333024, 0.03843013942241669, 0.12712882459163666, 0.11458376795053482, -0.04572678357362747, 0.07640080899000168, -0.11013347655534744, -0.14300106465816498, -0.023648273199796677, -0.08199289441108704, -0.10708266496658325, 0.1162647008895874, -0.015687914565205574, 0.04083588346838951, -0.012497690506279469, -0.08793051540851593, -0.12209533900022507, 0.1275368630886078, -0.13229674100875854, 0.16572362184524536, -0.13934853672981262, 0.26098981499671936, -0.10633665323257446, -0.2542197108268738, -0.13435712456703186, 0.044612232595682144, 0.2271260917186737, 0.34727242588996887, 0.05356815084815025, 0.08562200516462326, 0.008488748222589493, -0.027658209204673767, 0.3542512357234955, -0.0520392581820488, -0.05141107365489006, -0.08157573640346527, -0.13085685670375824, 0.25064003467559814, 0.14759273827075958, -0.082298643887043, -0.18000765144824982, -0.07210549712181091, -0.14646291732788086, 0.024389872327446938, -0.2548852860927582, 0.15950003266334534, -0.2781878709793091, 0.034526992589235306, 0.12673543393611908, -0.09913897514343262, 0.08749580383300781, 0.2099105715751648, -0.09618867188692093, 0.11245568841695786, -0.053305480629205704, -0.15635588765144348, 0.010902541689574718, -0.06136533245444298, 0.1779266595840454, -0.061456818133592606, 0.06340371817350388, 0.14946426451206207, -0.1095215231180191, -0.0004913360462523997, 0.03607715293765068, 0.027392689138650894, -0.037112828344106674, -0.08733897656202316, -0.047685299068689346, -0.04264556244015694, 0.1594526171684265, -0.011074806563556194, -0.15734346210956573, -0.003294511931017041, -0.15396183729171753, 0.011573809199035168, -0.04588093236088753, 0.09920180588960648, 0.20566141605377197, -0.008899103850126266, 0.010992859490215778, 0.1365692913532257, 0.08203732967376709, 0.09941999614238739, 0.060300447046756744, 0.2413998544216156, -0.05396585538983345, -0.15467210114002228, -0.1282845288515091, -0.07588283717632294, -0.019476065412163734, -0.1352609246969223, -0.1263716220855713, -0.05809636414051056, -0.09357089549303055, 0.12055526673793793, 0.022432848811149597, -0.11508279293775558, 0.1551341563463211, 0.043582141399383545, -0.11384105682373047, 0.13191398978233337, -0.01011606864631176, 0.06223349645733833, 0.1869903951883316, 0.06891117990016937, -0.033188596367836, -0.013746082782745361, 0.022583216428756714, -0.13116934895515442, -0.005687823053449392, 0.0028323139995336533, -0.023456955328583717, 0.061765607446432114, -0.09428173303604126, -0.09120495617389679], [0.17067134380340576, -0.0019247394520789385, -0.055466149002313614, -0.016758080571889877, 0.20302869379520416, 0.03848230466246605, 0.022983014583587646, 0.11075253039598465, -0.18354468047618866, 0.012459435500204563, -0.0555834099650383, -0.09270340204238892, -0.1423412710428238, -0.12169522047042847, 0.11431054025888443, 0.1609441637992859, -0.04924146831035614, -0.11847511678934097, -0.0819006860256195, -0.2523735761642456, 0.11192792654037476, -0.10055547952651978, -0.18623784184455872, -0.14213106036186218, -0.2297634482383728, -0.13466857373714447, 0.05762968957424164, -0.08485817909240723, 0.030387476086616516, -0.0152997225522995, 0.09329710900783539, -0.0010791162494570017, 0.005840679630637169, 0.2565781772136688, 0.11108023673295975, 0.05649431422352791, 0.2475290149450302, 0.18862000107765198, -0.07146822661161423, -0.1183520257472992, -0.08666996657848358, -0.02697042189538479, -0.34462812542915344, -0.05456140637397766, -0.22292561829090118, 0.23498587310314178, 0.1039617657661438, -0.06856192648410797, 0.07125531136989594, 0.022899549454450607, 0.2745600938796997, 0.024028951302170753, -0.13631589710712433, 0.14131012558937073, -0.05995211750268936, 0.07883130013942719, 0.18792518973350525, 0.11532396823167801, 0.09670250862836838, -0.14275549352169037, -0.010089491493999958, 0.06635326892137527, 0.1383889764547348, -0.13580293953418732, -0.17402777075767517, -0.014899482019245625, -0.05342550948262215, -0.06552936881780624, -0.02064371295273304, 0.16691415011882782, -0.1207597479224205, -0.13252896070480347, -0.0758390799164772, -0.0913824662566185, -0.06528175622224808, -0.12361074984073639, 0.14532247185707092, -0.16582398116588593, 0.1246950775384903, -0.0017353231087327003, -0.07965448498725891, 0.1302284300327301, -0.13538610935211182, 0.08859249204397202, -0.14615178108215332, 0.045497290790081024, 0.07604843378067017, -0.030808482319116592, 0.03757680580019951, -0.16545435786247253, -0.058769162744283676, 0.12369255721569061, -0.06762276589870453, 0.1549363136291504, -0.14655686914920807, 0.08008026331663132, -0.13021939992904663, 0.18301042914390564, -0.046023353934288025, -0.16210050880908966, -0.1629549115896225, -0.16128084063529968, -0.20204401016235352, 0.1491999477148056, 0.18080393970012665, 0.11414578557014465, 0.0227445550262928, 0.150642991065979, -0.05269439518451691, -0.04580839350819588, -0.15133850276470184, -0.03978000581264496, 0.055057376623153687, -0.07862665504217148, -0.08589392900466919, -0.02883291244506836, -0.020914891734719276, 0.042561352252960205, 0.109189473092556, 0.021899275481700897, -0.002377308439463377, -0.04273482784628868, 0.007037180010229349, -0.024779122322797775, -0.07063605636358261, 0.14441344141960144, 0.10005492717027664, -0.14899486303329468], [0.1312263160943985, 0.11555264890193939, 0.06159554794430733, 0.10250691324472427, 0.033186618238687515, -0.1603577882051468, -0.02976006641983986, 0.15394943952560425, -0.08702262490987778, 0.14562144875526428, -0.10505189746618271, 0.09033290296792984, 0.024441586807370186, 0.11840043216943741, 0.10521964728832245, 0.10861334204673767, -0.06870963424444199, 0.048556260764598846, -0.3200299143791199, -0.18514132499694824, -0.3720259964466095, -0.0246067326515913, -0.012441241182386875, 0.14267592132091522, -0.15702329576015472, 0.01262793317437172, -0.3390387296676636, -0.10049942135810852, -0.05068802088499069, -0.23689360916614532, 0.21887582540512085, 0.11182090640068054, 0.1443728804588318, -0.5126833319664001, 0.19073985517024994, -0.0031027235090732574, -0.1656653881072998, -0.0456773117184639, 0.0948459580540657, 0.10088367015123367, -0.10838380455970764, 0.2242630571126938, -0.11873079091310501, 0.02729351818561554, 0.1541329175233841, -0.018426332622766495, 0.12888482213020325, -0.025655867531895638, 0.09553493559360504, -0.009549333713948727, 0.04886557534337044, -0.030840253457427025, -0.16087758541107178, -0.06700921803712845, -0.04537669196724892, 0.11129476130008698, 0.15067851543426514, -0.007438446395099163, 0.202922984957695, -0.1251862347126007, 0.21456581354141235, 0.12513591349124908, 0.15429671108722687, -0.04234132170677185, -0.04368644952774048, 0.05521688237786293, 0.14231479167938232, 0.001054665306583047, 0.027146240696310997, -0.09856252372264862, 0.08167633414268494, 0.00012190180859761313, 0.025866985321044922, -0.14141008257865906, 0.09903674572706223, -0.14581874012947083, 0.12365615367889404, 0.12570244073867798, 0.025991160422563553, -0.022467518225312233, -0.10827531665563583, 0.10688265413045883, -0.12032386660575867, 0.07048160582780838, 0.08943063020706177, -0.011711638420820236, -0.06019030138850212, 0.20605039596557617, -0.04384568706154823, 0.1554887294769287, -0.04810410365462303, -0.13947604596614838, -0.16148900985717773, -0.022107845172286034, -0.06064462289214134, -0.12037701904773712, -0.1570192575454712, 0.020901072770357132, 0.15262998640537262, 0.028552474454045296, 0.03431237116456032, 0.15481175482273102, 0.09662772715091705, 0.09291858971118927, -0.04645153135061264, -0.028085429221391678, 0.05012930929660797, 0.09851869195699692, 0.022451382130384445, 0.1718389391899109, 0.1442238688468933, -0.05516103282570839, -0.13222110271453857, 0.1257150024175644, 0.15637215971946716, 0.09341006726026535, 0.05094743147492409, 0.14546580612659454, 0.13868007063865662, -0.024087784811854362, -0.10890193283557892, 0.1780964583158493, 0.13970597088336945, 0.13181661069393158, -0.15052823722362518, 0.1475934386253357, -0.05897616967558861, 0.10925300419330597], [-0.016834169626235962, 0.16263753175735474, -0.05029251426458359, -0.061452072113752365, -0.16597141325473785, 0.04432482272386551, -0.07521264255046844, -0.09734988957643509, 0.13003063201904297, 0.06599944829940796, -0.15538766980171204, -0.05929374322295189, 0.0010844503995031118, -0.11601835489273071, -0.18304505944252014, -0.058826182037591934, 0.0991106852889061, 0.0420009084045887, -0.11924401670694351, -0.1367206871509552, 0.059275951236486435, -0.09201741218566895, 0.11992542445659637, -0.1009926050901413, -0.031526271253824234, -0.008650810457766056, -0.06872234493494034, 0.15302138030529022, 0.09281811863183975, -0.04494604840874672, -0.20826861262321472, -0.1374824345111847, -0.1411561518907547, 0.06175893172621727, -0.04783474653959274, -0.1654045283794403, -0.05851157754659653, -0.10311412066221237, 0.04897370934486389, 0.010732553899288177, 0.13335084915161133, 0.053054146468639374, -0.030201999470591545, 0.08821536600589752, 0.14974386990070343, -0.02047526277601719, 0.10552410781383514, -0.22401675581932068, -0.1536538153886795, -0.1377449482679367, 0.05542692914605141, -0.011992044746875763, 0.09056298434734344, -0.06302417814731598, -0.1018664762377739, -0.05672595649957657, -0.030300339683890343, 0.02883894555270672, 0.07978951930999756, -0.026254983618855476, 0.09855801612138748, -0.06891309469938278, 0.12881934642791748, -0.09046327322721481, -0.10830271244049072, -0.15749377012252808, -0.10008686780929565, -0.12553828954696655, 0.10795559734106064, 0.12687355279922485, -0.05214158073067665, -0.08868720382452011, -0.1429823935031891, 0.07908126711845398, 0.17866595089435577, 0.12209489196538925, -0.0901910737156868, -0.0864662453532219, 0.004845599643886089, 0.13406769931316376, 0.02319297567009926, -0.03900999575853348, -0.055094342678785324, -0.1373925507068634, 0.12803097069263458, -0.06903260946273804, -0.07347504794597626, -0.14737460017204285, -0.22700324654579163, -0.026630301028490067, 0.0647624209523201, -0.017781727015972137, 0.06612911820411682, -0.2014041692018509, -0.1169784665107727, -0.007975037209689617, -0.1762303113937378, -0.025704652070999146, 0.10291013866662979, 0.029568558558821678, -0.10532767325639725, -0.11368110775947571, 0.0941176787018776, 0.14002366364002228, 0.1022864356637001, 0.08118390291929245, -0.005609794054180384, 0.06930984556674957, -0.11459629982709885, -0.08804704248905182, -0.10070828348398209, 0.007768436335027218, 0.21413491666316986, -0.07809575647115707, -0.13123656809329987, 0.14560352265834808, -0.0016928836703300476, 0.0468522384762764, -0.1048869863152504, -0.17260511219501495, -0.03282608836889267, -0.13412101566791534, -0.07435755431652069, 0.11582175642251968, 0.1078079342842102, -0.020134996622800827, -0.005940329283475876, -0.13890807330608368], [0.05840121582150459, -0.06205708906054497, 0.10279873013496399, -0.07327380776405334, -0.05062191188335419, -0.1689530313014984, 0.041313089430332184, -0.003573824418708682, 0.10978800058364868, 0.11865418404340744, 0.015069340355694294, -0.050668034702539444, -0.17050088942050934, 0.053861573338508606, 0.05579613894224167, -0.010131662711501122, -0.07325080037117004, 0.12520578503608704, -0.09677764028310776, 0.18007656931877136, -0.03901132196187973, 0.12254201620817184, 0.040512971580028534, -0.050376348197460175, 0.015405752696096897, -0.0020811501890420914, -0.11772685497999191, 0.08161572366952896, 0.0585448257625103, 0.08393733203411102, -0.009434721432626247, -0.0077695040963590145, 0.031078750267624855, 0.04565984010696411, 0.02284403331577778, 0.03471117094159126, 0.017961423844099045, -0.02484736405313015, -0.005185927730053663, 0.0009366458980366588, -0.040598854422569275, -0.035825055092573166, -0.0021642937790602446, 0.026645902544260025, 0.05719733610749245, 0.02487492747604847, 0.05287286639213562, -0.0069173043593764305, -0.017459332942962646, 0.022214092314243317, -0.06438512355089188, 0.021905409172177315, 0.06306987255811691, 0.01925201155245304, -0.10750789195299149, -0.03383089601993561, -0.02893882617354393, -0.008771548978984356, 0.037354856729507446, 0.0063823009841144085, 0.007408910896629095, 0.04097367823123932, -0.036129921674728394, 0.0020600929856300354, 0.2485561966896057, -0.05721460282802582, 0.08875562995672226, -0.2871442437171936, -0.021010318771004677, 0.13451042771339417, -0.01365260872989893, -0.025857768952846527, 0.11848072707653046, 0.14778733253479004, -0.09839537739753723, -0.1489393562078476, -0.15724386274814606, 0.07064389437437057, -0.0009885671315714717, -0.24269667267799377, -0.28814756870269775, 0.13041310012340546, 0.01965312473475933, 0.07763705402612686, -7.956114131957293e-05, 0.2989840805530548, 0.01918787509202957, 0.1768084466457367, 0.20415666699409485, 0.11911484599113464, -0.2561689615249634, 0.02461889386177063, 0.18126487731933594, 0.4220428168773651, -0.16301366686820984, 0.025918928906321526, 0.19261226058006287, 0.05479447916150093, 0.03804156556725502, -0.08205229043960571, -0.09471456706523895, 0.08390040695667267, -0.03645969554781914, -0.03922685235738754, -0.047958988696336746, 0.0936257466673851, 0.1015530377626419, -0.15327060222625732, -0.08849287778139114, 0.250500351190567, 0.16543643176555634, -0.11475133150815964, -0.25940924882888794, -0.11157344281673431, 0.01409865915775299, 0.05922682583332062, -0.007047688588500023, 0.2687268555164337, 0.12004149705171585, -0.0020468179136514664, -0.00314239040017128, 0.11254789680242538, 0.009887338615953922, 0.1666627675294876, 0.18926405906677246, 0.020947230979800224, -0.010982397012412548, 0.03527585417032242], [0.12923476099967957, 0.029613105580210686, -0.07865789532661438, -0.03298212215304375, -0.13460643589496613, 0.012022504583001137, 0.08673986047506332, 0.13334371149539948, -0.04063902050256729, 0.05613259971141815, -0.13533653318881989, 0.010609063319861889, 0.0491047203540802, 0.09287378191947937, 0.1606169193983078, 0.03502870351076126, -0.033582430332899094, -0.014475501142442226, 0.016292069107294083, 0.11843515932559967, -0.08016831427812576, 0.0527477040886879, -0.11954627186059952, -0.0255108792334795, -0.001326300553046167, -0.05324356630444527, 0.16524486243724823, 0.04200460761785507, 0.18241670727729797, -0.07460228353738785, -0.030941518023610115, 0.12956030666828156, 0.04452158138155937, 0.025053534656763077, -0.02358822710812092, -0.12265769392251968, -0.04734712466597557, -0.028478184714913368, -0.059679288417100906, -0.07846463471651077, 0.10042230039834976, 0.03518421947956085, 0.013813857920467854, 0.023293139412999153, -0.007494134828448296, -0.01310807652771473, 0.04205258935689926, -0.06983199715614319, 0.005951031111180782, 0.003180129686370492, 0.01705421321094036, 0.015101241879165173, -0.01096752192825079, 0.08259708434343338, -0.06385288387537003, -0.00235986290499568, 0.02893214486539364, 0.02905651181936264, 0.011909972876310349, 0.040556587278842926, -0.024002738296985626, -0.03753072768449783, 0.05397956818342209, -0.047416117042303085, 0.1684257686138153, -0.019043296575546265, 0.11102601885795593, -0.22260460257530212, 0.01773061603307724, -0.16519087553024292, 0.04474367946386337, 0.0842321589589119, 0.012221107259392738, -0.036528825759887695, -0.10221395641565323, 0.1888377070426941, -0.07526816427707672, -0.16930313408374786, 0.11614000052213669, -0.08599046617746353, 0.1790090650320053, -0.179587721824646, -0.0993289202451706, 0.2140687108039856, -0.004127143882215023, -0.04603710398077965, 0.14875134825706482, 0.10930339992046356, -0.13631397485733032, 0.13440461456775665, -0.007539610378444195, -0.025534920394420624, 0.014467939734458923, -0.022946037352085114, 0.08208079636096954, 0.04840709641575813, 0.15052072703838348, 0.037173911929130554, 0.12555597722530365, -0.049658529460430145, -0.04332437366247177, -0.06471366435289383, -0.016766268759965897, -0.0631612166762352, -0.00988772977143526, 0.13330161571502686, -0.020310433581471443, 0.09056699275970459, 0.13665302097797394, -0.05374249443411827, 0.023616718128323555, -0.08390114456415176, 0.25468727946281433, 0.05323268100619316, -0.009715535677969456, 0.24323274195194244, 0.037708066403865814, -0.014537896029651165, 0.22385184466838837, 0.08700989931821823, -0.15864898264408112, 0.048031579703092575, 0.10123584419488907, -0.04344894737005234, -0.018622487783432007, 0.12230397015810013, -0.19338539242744446, 0.14838403463363647], [-0.008443837985396385, 0.06260725855827332, -0.05024554580450058, -0.17269277572631836, -0.04671509563922882, -0.16868971288204193, 0.0013515818864107132, -0.16102848947048187, -0.16389960050582886, -0.019939837977290154, -0.16817285120487213, 0.17537832260131836, -0.07647066563367844, -0.11904831230640411, -0.11091651022434235, -0.09503290057182312, -0.03192809224128723, -0.047023456543684006, 0.06014438346028328, -0.009967751801013947, -0.030746249482035637, -0.05313887447118759, -0.032959140837192535, 0.1509426385164261, -0.10995639115571976, 0.12631845474243164, 0.1288653016090393, 0.04304073750972748, 0.10135933756828308, -0.19915315508842468, 0.1406230330467224, 0.18870431184768677, 0.045606255531311035, -0.0738617405295372, -0.014186233282089233, -0.014407568611204624, -0.012775689363479614, 0.014024529606103897, -0.047914788126945496, 0.010741585865616798, 0.07041019201278687, 0.09332717210054398, -0.01633252575993538, -0.1349044144153595, -0.10811741650104523, 0.05525027588009834, -0.17513617873191833, -0.04149793088436127, 0.00035353534622117877, -0.16903875768184662, 0.01604985073208809, 0.05002502724528313, -0.10951834917068481, 0.08160927891731262, 0.02719414420425892, 0.19484275579452515, 0.036528147757053375, 0.03306550532579422, -0.02159116230905056, -0.03887451812624931, -0.07186829298734665, -0.13036805391311646, 0.05999050289392471, 0.054965101182460785, 0.16198574006557465, -0.1830899715423584, -0.09563349932432175, -0.1862919181585312, -0.1401224136352539, -0.1884145885705948, 0.1689070761203766, -0.20257194340229034, 0.1328069269657135, 0.1808026283979416, -0.17784003913402557, 0.09540589898824692, -0.08733010292053223, 0.1335119605064392, -0.009258466772735119, 0.09347517043352127, 0.015715541318058968, -0.15531383454799652, -0.08859682083129883, 0.15132509171962738, 0.04304059222340584, 0.09171197563409805, -0.17985494434833527, 0.1759541630744934, -0.09760235249996185, 0.04381959140300751, 0.1282670795917511, 0.01429651491343975, 0.0948084220290184, 0.10321541875600815, 0.06868185847997665, 0.01377144642174244, 0.05183364078402519, -0.06387321650981903, -0.16221018135547638, -0.17660263180732727, -0.12570656836032867, -0.011746457777917385, -0.014002189971506596, -0.022865936160087585, 0.05658511072397232, -0.13699489831924438, 0.046408358961343765, -0.06437300890684128, 0.06533097475767136, -0.1133149266242981, -0.08470360934734344, 0.10256919264793396, 0.021544504910707474, -0.07312465459108353, 0.06274442374706268, 0.1353835016489029, -0.16762207448482513, -0.01582075096666813, 0.13737653195858002, -0.1733700931072235, 0.005715715233236551, 0.15424393117427826, -0.049221038818359375, -0.0030203431379050016, -0.00590976607054472, 0.1369687169790268, -0.24363958835601807, -0.18484942615032196], [0.050376683473587036, 0.015171936713159084, -0.05446659401059151, -0.12275479733943939, -0.026741376146674156, -0.134499654173851, -0.021608181297779083, 0.035577140748500824, -0.12055531144142151, 0.15278726816177368, 0.018413424491882324, 0.015057737939059734, 0.11073939502239227, 0.08447400480508804, 0.20160849392414093, 0.09098879992961884, 0.06337627023458481, -0.13137434422969818, -0.08307835459709167, 0.15519945323467255, -0.07979201525449753, 0.003984325099736452, -0.10360942035913467, -0.032380037009716034, 0.1256796270608902, 0.15764540433883667, -0.10793285816907883, -0.17467540502548218, 0.1112915575504303, -0.07759087532758713, -0.13026215136051178, 0.15582849085330963, -0.16834023594856262, -0.05655389651656151, -0.02766161970794201, 0.1795748472213745, -0.1515999585390091, 0.0365334115922451, -0.07070083171129227, -0.21841123700141907, 0.11557082831859589, 0.15574149787425995, 0.009389839135110378, 0.05075463280081749, -0.04013127088546753, 0.10574745386838913, -0.0036308022681623697, 0.037789832800626755, 0.027059689164161682, -0.07843248546123505, 0.29924267530441284, -0.1067206859588623, 0.062110256403684616, 0.00675651989877224, -0.07394038885831833, 0.05677228420972824, 0.10558883100748062, 0.07182516157627106, 0.059777047485113144, -0.042852189391851425, 0.10166501998901367, 0.026827920228242874, -0.02675512246787548, -0.1491318792104721, 0.12081170827150345, 0.005750088021159172, 0.042901258915662766, 0.11052706837654114, 0.0726976990699768, -0.11197006702423096, 0.09017840772867203, -0.1529283970594406, 0.034408848732709885, 0.11832290887832642, 0.1083478182554245, -0.008653414435684681, -0.08688108623027802, 0.19849754869937897, 0.1323378086090088, 0.0039005086291581392, -0.08949128538370132, 0.08233974128961563, 0.001469681621529162, 0.16940055787563324, 0.12332559376955032, 0.19352327287197113, -0.02013937011361122, 0.03295034542679787, 0.10668180882930756, 0.01830531284213066, 0.022822584956884384, -0.023480020463466644, 0.08770030736923218, -0.01974109373986721, -0.2014225870370865, 0.09948143362998962, 0.13436679542064667, -0.02932215854525566, 0.13093285262584686, 0.14473070204257965, 0.05482475459575653, 0.16624586284160614, 0.1112927570939064, -0.09643952548503876, 0.08383290469646454, 0.09128668904304504, 0.0120994932949543, 0.042648013681173325, 0.08828383684158325, 0.0927218496799469, 0.12145055085420609, -0.0070257605984807014, -0.16819751262664795, 0.13420100510120392, 0.0730157420039177, 0.2323610782623291, -0.05897603929042816, -0.07750681042671204, 0.11748940497636795, 0.16665859520435333, -0.03532199189066887, 0.09021180123090744, 0.15286625921726227, -0.07154010981321335, -0.0749296098947525, 0.21579812467098236, 0.05278954654932022, -0.07015889137983322], [0.09209201484918594, -0.0980314165353775, -0.13091297447681427, 0.08062156289815903, 0.14770349860191345, -0.06581186503171921, -0.14921768009662628, -0.019361069425940514, -0.1127648875117302, 0.0556369349360466, 0.012936110608279705, 0.05548379197716713, -0.09012271463871002, 0.04283812642097473, 0.07743841409683228, 0.09215547144412994, 0.06598304212093353, 0.15191400051116943, -0.09917953610420227, -0.08460629731416702, -0.10318702459335327, -0.047812484204769135, 0.14273162186145782, -0.17972131073474884, -0.05225961282849312, 0.031133117154240608, 0.1591891497373581, -0.0007794614648446441, 0.0632781833410263, -0.020778128877282143, -0.08508697897195816, -0.1313048154115677, 0.008731843903660774, -0.06208202242851257, 0.043235018849372864, -0.1093965619802475, -0.06684251129627228, -0.27147525548934937, 0.08995386213064194, 0.14503280818462372, -0.21458584070205688, 0.07415872812271118, 0.000997555092908442, -0.05655394122004509, 0.018062671646475792, -0.08125156164169312, 0.08270235359668732, -0.12369678914546967, -0.0595695897936821, 0.08299669623374939, 0.012706245295703411, -0.019029192626476288, -0.11017687618732452, 0.06289496272802353, -0.14536389708518982, 0.08606061339378357, -0.03542613238096237, 0.008808208629488945, 0.2704385221004486, -0.025049183517694473, -0.0235635694116354, -0.11245693266391754, 0.0655670166015625, -0.07492983341217041, -0.08131120353937149, -0.1857718676328659, 0.08690785616636276, 0.12237019091844559, -0.10439515858888626, 0.15280137956142426, -0.0988539457321167, -0.06787809729576111, 0.1275445520877838, 0.06043928489089012, -0.07925646752119064, -0.050185542553663254, -0.17250192165374756, -0.161749005317688, -0.13183435797691345, 0.161040797829628, -0.20351441204547882, 0.1758003532886505, -0.22343239188194275, -0.007839272730052471, -0.12286760658025742, -0.13752835988998413, -0.014267051592469215, -0.14334024488925934, -0.16901206970214844, -0.026841305196285248, 0.05975218117237091, -0.04078832268714905, 0.09308143705129623, -0.22087697684764862, -0.0390801876783371, -0.16560494899749756, 0.037986673414707184, 0.03095623105764389, -0.15096306800842285, -0.06951446086168289, 0.15530087053775787, 0.012619869783520699, 0.04661182314157486, 0.05873173475265503, 0.07119204103946686, -0.18575100600719452, 0.10571890324354172, -0.06832314282655716, 0.018331019207835197, -0.03191054239869118, 0.06280206143856049, 0.134418785572052, -0.018534153699874878, 0.18092507123947144, -0.10698213428258896, 0.06659102439880371, -0.12471229583024979, -0.15273939073085785, -0.10048799961805344, 0.1601778268814087, -0.10811827331781387, -0.04482268542051315, 0.13967201113700867, -0.03320249170064926, -0.06983724236488342, -0.09150006622076035, -0.1308964639902115, -0.18966878950595856], [-0.151312455534935, 0.04794558510184288, -0.056610867381095886, 0.1263456493616104, -0.07272997498512268, 0.0024474102538079023, 0.039446871727705, 0.1520749032497406, 0.047056645154953, -0.10774010419845581, -0.20437878370285034, 0.03430572897195816, 0.06872804462909698, -0.1537919044494629, -0.0495869442820549, 0.19402442872524261, 0.29481709003448486, 0.10972513258457184, 0.1549818515777588, -0.04735243692994118, 0.1359890252351761, -0.26441094279289246, -0.05216133967041969, 0.21208174526691437, 0.06681151688098907, 0.07855936139822006, 0.12555134296417236, 0.12788601219654083, 0.0474899485707283, -0.09767308831214905, -0.0009286205167882144, 0.017028162255883217, 0.022698942571878433, -0.031666118651628494, -0.02456519939005375, -0.017445243895053864, -0.03311531990766525, 0.04197228327393532, 0.06401331722736359, -0.021985342726111412, 0.0008138762786984444, 0.016374731436371803, 0.038102127611637115, -0.019851811230182648, 0.04498820751905441, 0.022317858412861824, -0.0005901759141124785, 0.015005823224782944, -0.03797236829996109, 0.013023107312619686, 0.0328780896961689, -0.009745116345584393, -0.022822819650173187, 0.0054650092497467995, 0.14578932523727417, 0.020430469885468483, -0.023286819458007812, 0.06177835166454315, 0.019757280126214027, -0.020142432302236557, 0.02794957347214222, 0.01929081417620182, 0.05701804533600807, -0.013084339909255505, 0.007634690497070551, 0.3265010416507721, 0.09498002380132675, -0.12195383012294769, -0.29759010672569275, 0.16730473935604095, 0.06242204084992409, -0.08613642305135727, -0.16921786963939667, -0.019506491720676422, 0.03967370092868805, 0.18678238987922668, 0.1673937439918518, -0.0330866314470768, -0.031125448644161224, 0.18070538341999054, 0.28648099303245544, 0.1287306696176529, 0.22403377294540405, -0.06012776121497154, -0.1077360287308693, -0.3091345429420471, 0.011063402518630028, 0.14087381958961487, -0.015087176114320755, -0.08523829281330109, 0.1948666125535965, 0.1685992330312729, -0.15974394977092743, -0.06019880622625351, 0.11398945748806, -0.12118078768253326, -0.13413822650909424, 0.028532279655337334, -0.10556177794933319, 0.013601409271359444, 0.012330704368650913, 0.09237809479236603, -0.009062604047358036, 0.038326695561409, -0.07822836190462112, 0.050418172031641006, 0.11190998554229736, 0.03061440773308277, 0.12772496044635773, -0.05468975380063057, 0.19377872347831726, 0.008000277914106846, 0.1274801641702652, -0.06241365149617195, 0.016201967373490334, 0.002705051563680172, -0.14786545932292938, -0.06440466642379761, 0.12867401540279388, 0.09251602739095688, -0.023189540952444077, 0.022227253764867783, -0.01725553162395954, -0.15926186740398407, 0.024653153494000435, 0.05355381965637207, -0.13077150285243988, -0.06332916766405106], [-0.21997259557247162, 0.006915052887052298, 0.04063859581947327, 0.019679632037878036, 0.013659987598657608, 0.21871843934059143, 0.0041971332393586636, 0.06626816838979721, 0.10655584931373596, -0.03994365036487579, 0.09855625033378601, -0.11913590133190155, 0.06511936336755753, -0.019610106945037842, -0.027091719210147858, 0.06589928269386292, 0.08351675420999527, -0.11125469207763672, 0.07354725152254105, -0.12680140137672424, 0.12323787063360214, 0.08862550556659698, 0.043636880815029144, -0.06737145036458969, 0.09849008917808533, 0.017291724681854248, -0.004510750062763691, -0.0472608283162117, -0.21320228278636932, 0.08526129275560379, -0.001251774956472218, -0.11745249480009079, 0.07477699965238571, 0.007540556136518717, -0.017457328736782074, -0.03261994570493698, 0.026645377278327942, 0.02835768088698387, 0.02580246888101101, 0.016101498156785965, -0.012669706717133522, 0.010117415338754654, -0.02902320958673954, -0.02512999437749386, -0.0047872234135866165, 0.0012486958876252174, -0.001087385811842978, 0.026459990069270134, -0.035542190074920654, -0.05115301162004471, -0.04717503860592842, -0.013962495140731335, 0.029480714350938797, 0.057880230247974396, 0.014069908298552036, 0.011509501375257969, -0.04563988372683525, 0.05375869199633598, 0.02437753975391388, 0.030359473079442978, 0.03034440241754055, 0.07438277453184128, 0.020826250314712524, -0.017920449376106262, -0.04807301610708237, 0.012019891291856766, 0.20835116505622864, 0.3027724325656891, -0.057706523686647415, -0.02221604436635971, -0.04729239270091057, 0.17113430798053741, -0.015151354484260082, -0.006413458846509457, 0.2674957513809204, 0.08369036018848419, -0.13356538116931915, 0.07263261824846268, -0.09199078381061554, 0.06293760240077972, -0.2736676335334778, 0.011722018010914326, 0.05035540461540222, -0.18062877655029297, 0.1982594132423401, -0.019618432968854904, 0.07468150556087494, -0.19900232553482056, 0.13644012808799744, -0.09582425653934479, -0.11958377808332443, -0.22357557713985443, -0.2758474349975586, 0.08869863301515579, 0.16925786435604095, -0.13351678848266602, -0.021354788914322853, -0.03452851250767708, -0.12417975068092346, 0.05285397171974182, 0.07154064625501633, 0.1459849327802658, -0.04638711363077164, 0.06875932961702347, 0.11945174634456635, 0.013774976134300232, 0.12222573161125183, -0.18479621410369873, -0.10328537225723267, 0.16587229073047638, -0.07839146256446838, 0.1373712420463562, 0.01097896695137024, -0.1773020476102829, 0.030663592740893364, -0.15585067868232727, 0.030308684334158897, 0.12964175641536713, -0.08268396556377411, -0.04389439523220062, -0.09456302970647812, -0.15676547586917877, 0.1329844444990158, -0.1427645981311798, -0.2067483514547348, -0.011720661073923111, -0.00417679687961936, -0.10076703131198883], [0.044685155153274536, 0.04277202859520912, 0.04835379868745804, -0.015703298151493073, 0.08033354580402374, 0.16301199793815613, -0.0017272891709581017, -0.061016954481601715, -0.08621219545602798, -0.09860081225633621, -0.20196834206581116, 0.050912100821733475, -0.031447671353816986, -0.03646974265575409, -0.09492351114749908, -0.11044307053089142, 0.13102325797080994, 0.12804746627807617, 0.168104887008667, 0.00835461262613535, -0.025524644181132317, -0.18352697789669037, 0.05927440896630287, -0.07206562906503677, -0.072939932346344, -0.15191811323165894, 0.10434936732053757, 0.1534857153892517, 0.16257379949092865, -0.20055820047855377, 0.0002521190035622567, 0.013992130756378174, 0.10401692986488342, -0.034533336758613586, -0.11615829914808273, 0.03915160521864891, -0.014140154235064983, 0.09692591428756714, 0.0024422560818493366, 0.09381426870822906, 0.08681802451610565, -0.0314241461455822, -0.01288482267409563, -0.034377411007881165, 0.027133839204907417, -0.04150627925992012, 0.0423993282020092, 0.029042473062872887, 0.01369615737348795, -0.05570826679468155, 0.05363369360566139, -0.02054811269044876, -0.08516634255647659, 0.017955906689167023, -0.06130755692720413, 0.08286029100418091, -0.03715565428137779, 0.039801497012376785, 0.0012138993479311466, 0.05824222043156624, -0.06628523021936417, -0.009151327423751354, 0.0607043094933033, 0.11601866036653519, -0.012006103061139584, 0.26169371604919434, -0.10903634130954742, -0.08820021897554398, -0.160557821393013, -0.02198665961623192, -0.0016871519619598985, -0.004296116530895233, 0.008380952291190624, -0.08897974342107773, -0.1112343966960907, 0.08693292737007141, -0.022354554384946823, -0.07384967803955078, -0.16412033140659332, -0.060594428330659866, 0.03694963827729225, -0.026117874309420586, -0.052373770624399185, 0.16881811618804932, -0.016133228316903114, -0.15103425085544586, 0.01766570284962654, 0.04496203735470772, 0.03975038602948189, 0.022914867848157883, 0.2045108824968338, -0.08678839355707169, -0.06720823794603348, 0.03960246965289116, 0.15128099918365479, -0.08919700980186462, 0.1464671939611435, -0.060897499322891235, -0.11302002519369125, -0.18056181073188782, -0.12469200044870377, 0.1636521965265274, 0.017545975744724274, 0.08100135624408722, 0.001762250903993845, 0.08952696621417999, 0.013179554603993893, 0.005671088118106127, 0.2381250262260437, -0.02893766574561596, -0.024784181267023087, 0.008368880487978458, -0.07168616354465485, 0.048312216997146606, -0.03022025153040886, 0.16752758622169495, -0.006362725514918566, 0.04078245162963867, 0.029785629361867905, 0.19145862758159637, -0.02736138179898262, 0.004232184961438179, 0.10891624540090561, -0.06529693305492401, 0.06840579211711884, -0.16736988723278046, 0.07986791431903839, -0.1310768723487854], [0.14077997207641602, -0.2529734671115875, -0.1498163789510727, 0.1193346157670021, -0.05525513365864754, -0.10588762164115906, 0.1053246334195137, -0.15909971296787262, -0.16507217288017273, -0.057439740747213364, -0.1635514348745346, 0.11909303069114685, 0.0024361652322113514, 0.1621052771806717, -0.15848368406295776, -0.13812272250652313, 0.08941861242055893, 0.04655439406633377, -0.16030210256576538, 0.0046228086575865746, 0.041086651384830475, -0.05026255175471306, -0.0699961930513382, 0.15473037958145142, 0.1680576652288437, -0.14164607226848602, -0.19091592729091644, 0.12004166096448898, 0.07590696215629578, 0.0912880226969719, -0.30217087268829346, -0.13420094549655914, -0.04318417236208916, -0.17062833905220032, -0.11850547790527344, -0.13513179123401642, -0.10635807365179062, -0.1024201512336731, 0.0038727312348783016, -0.1412816047668457, -0.011156227439641953, -0.09361451864242554, 0.02475506253540516, -0.08676469326019287, -0.2487901896238327, -0.05394374206662178, 0.10324940085411072, 0.08708743005990982, -0.011126166209578514, 0.03435150161385536, 0.0634954497218132, -0.08169249445199966, 0.08382799476385117, 0.10737156867980957, 0.09326465427875519, 0.09230102598667145, -0.11041899770498276, -0.1017172783613205, 0.09004668891429901, -0.0533687025308609, 0.2341875582933426, 0.02229180932044983, -0.280510812997818, -0.23130737245082855, -0.09258849173784256, 0.18702784180641174, 0.08022841066122055, -0.0945623591542244, -0.0970858559012413, 0.1407797634601593, 0.009397690184414387, 0.04069451987743378, 0.13838079571723938, -0.0866316631436348, -0.0451674647629261, 0.017261376604437828, 0.12152539193630219, 0.14260418713092804, 0.10507119446992874, 0.14030170440673828, 0.14872297644615173, -0.0368662104010582, -0.03248407691717148, 0.20130732655525208, 0.01104413066059351, -0.12313161790370941, -0.2544933557510376, 0.009708445519208908, 0.07019797712564468, 0.13457007706165314, -0.07070706784725189, -0.04757154732942581, 0.05543438717722893, 0.2685214877128601, -0.06569606810808182, 0.2620278000831604, 0.1508801281452179, 0.054354291409254074, -0.08850663900375366, -0.0065085263922810555, 0.09454265981912613, 0.09869643300771713, 0.09421802312135696, -0.08917420357465744, -0.10236550122499466, -0.04583960771560669, 0.14736878871917725, 0.11795953661203384, 0.06852209568023682, 0.22564630210399628, -0.01756224036216736, 0.08124768733978271, -0.07159439474344254, 0.13513727486133575, 0.019942769780755043, 0.1500026434659958, 0.01610773801803589, 0.11157342046499252, -0.2398979663848877, -0.1881071776151657, -0.021538928151130676, 0.004278426058590412, -0.0002104460436385125, 0.029727546498179436, 0.0470360703766346, 0.015943408012390137, -0.140976220369339, 0.21890348196029663], [0.007875734008848667, -0.12114274501800537, 0.11661317944526672, -0.03833036869764328, 0.07262514531612396, -0.07054930925369263, -0.06519147008657455, 0.20494170486927032, 0.2701563239097595, -0.011681151576340199, 0.18917608261108398, -0.137925922870636, -0.12742631137371063, -0.09495321661233902, -0.1250966489315033, 0.1919364631175995, -0.0030497414991259575, -0.021469414234161377, 0.058772679418325424, 0.12076810747385025, 0.14141404628753662, -0.13054510951042175, -0.08431066572666168, -0.05655517056584358, 0.17708741128444672, -0.02481573447585106, 0.11285248398780823, -0.16627085208892822, 0.06001853197813034, 0.0778086856007576, -0.04233994707465172, -0.04292026534676552, 0.0517035573720932, 0.056574124842882156, -0.19012200832366943, -0.1284218728542328, 0.0987594798207283, 0.03210115805268288, 0.06342026591300964, 0.05801815167069435, -0.0902729481458664, -0.02554941363632679, -0.010603724047541618, 0.03046122007071972, 0.07816074043512344, -0.011095963418483734, -0.07142241299152374, -0.10764823853969574, -0.0019391333917155862, 0.08399488776922226, -0.06140747666358948, 0.029350509867072105, 0.011034599505364895, 0.08435428887605667, 0.008200954645872116, -0.015625959262251854, 0.10513655841350555, -0.08803018927574158, 0.11855542659759521, -0.039954740554094315, -0.1956099569797516, -0.028000686317682266, -0.047116782516241074, -0.017152152955532074, -0.11454841494560242, -0.03444739058613777, -0.14400523900985718, 0.2513902485370636, 0.12650611996650696, 0.0880315750837326, 0.008082215674221516, -0.05851452425122261, -0.07430383563041687, -0.1341427117586136, 0.1736249476671219, -0.1326180398464203, -0.15028341114521027, -0.06810671836137772, -0.020727835595607758, 0.006645635236054659, 0.08149848878383636, -0.16621746122837067, 0.04870206117630005, -0.20440265536308289, 0.0201202891767025, 0.05460891127586365, 0.0872562900185585, -0.05629078298807144, 0.17825165390968323, -0.1955447494983673, -0.002583099063485861, -0.1493183821439743, 0.12015996128320694, 0.07490819692611694, 0.2969282269477844, -0.07009845227003098, -0.039633430540561676, 0.06531500071287155, -0.009746585041284561, -0.01618676446378231, -0.08873879164457321, 0.09966863691806793, -0.0850062146782875, 0.04462643712759018, -0.059197135269641876, 0.14615020155906677, 0.20227988064289093, -0.05354492738842964, 0.032923851162195206, 0.10542170703411102, -0.1153818741440773, -0.15013031661510468, -0.06442200392484665, -0.08214467763900757, -0.13336995244026184, 0.03997035324573517, 0.11301800608634949, -0.10902655124664307, -0.11304226517677307, 0.0969172939658165, -0.01949274353682995, -0.084889717400074, 0.12362886220216751, 0.06634857505559921, 0.11198421567678452, -0.10538209229707718, 0.022375749424099922, 0.11905432492494583], [0.05521852895617485, 0.1307905614376068, 0.17516575753688812, -0.14245504140853882, 0.09079854190349579, 0.16301840543746948, 0.14872205257415771, 0.13888266682624817, -0.1420842558145523, -0.012754681520164013, -0.024349140003323555, -0.1418129801750183, 0.049137674272060394, 0.13821658492088318, -0.15329889953136444, 0.09229110181331635, -0.0343804806470871, -0.15314289927482605, -0.12608952820301056, -0.027659229934215546, -0.0033061483409255743, 0.04267391934990883, -0.11315327137708664, 0.1427370309829712, -0.11599774658679962, -0.14993253350257874, 0.031079784035682678, -0.002617164980620146, 0.00707045616582036, 0.06959475576877594, 0.08546734601259232, -0.025229988619685173, -0.12670277059078217, -0.03936496004462242, 0.06957749277353287, 0.02102266624569893, 0.09489473700523376, -0.025398779660463333, 0.04667643457651138, -0.14965131878852844, 0.07552006840705872, 0.17192859947681427, 0.015411730855703354, -0.1593305766582489, 0.11008871346712112, 0.04850348085165024, -0.09712286293506622, -0.07485295087099075, 0.04947861284017563, -0.09222281724214554, 0.17752350866794586, -0.07643342018127441, -0.05303843319416046, 0.07124060392379761, -0.08685072511434555, -0.026860343292355537, -0.01284011546522379, -0.03966108337044716, -0.14033222198486328, -0.10669540613889694, -0.05237553268671036, -0.13809408247470856, 0.10204145312309265, -0.06744207441806793, -0.16650362312793732, 0.07707273960113525, 0.18844236433506012, 0.1073867604136467, 0.14119727909564972, 0.15341803431510925, -0.05561864376068115, -0.10858362913131714, -0.05894220620393753, 0.02945413812994957, 0.1311284750699997, 0.11704118549823761, 0.14000731706619263, 0.15702013671398163, 0.0021446391474455595, 0.1670733094215393, -0.04766366258263588, 0.047662582248449326, 0.12843498587608337, -0.025843100622296333, -0.02322433702647686, 0.14760136604309082, -0.044755250215530396, 0.02241942100226879, -0.03011278063058853, -0.052908044308423996, -0.07279793918132782, -0.12135627120733261, 0.11620612442493439, -0.02544127032160759, -0.08775153756141663, -0.21276265382766724, 0.028572916984558105, -0.017309151589870453, -0.07173146307468414, 0.13967156410217285, 0.11107294261455536, 0.04904848337173462, 0.08446794748306274, -0.035723138600587845, -0.06028655171394348, 0.10470359772443771, 0.042580973356962204, 0.11077514290809631, -0.05326859652996063, -0.18757180869579315, -0.01098689530044794, -0.10114684700965881, 0.021537696942687035, -0.12943428754806519, -0.13487306237220764, 0.09512678533792496, 0.16508255898952484, 0.1522936373949051, -0.01700671948492527, -0.07378696650266647, -0.13240917026996613, 0.07362743467092514, -0.11717992275953293, -0.11150083690881729, -0.01129897590726614, 0.09757166355848312, 0.0257530827075243, 0.09853864461183548], [-0.023666633293032646, -0.055771540850400925, -0.15841761231422424, -0.10587659478187561, 0.09441979974508286, -0.12459944188594818, -0.011146258562803268, 0.11807451397180557, 0.13076303899288177, 0.012154975906014442, 0.15048952400684357, 0.05480818450450897, 0.003325724508613348, 0.021847356110811234, 0.10487336665391922, 0.011834926903247833, 0.016788259148597717, 0.05445178598165512, -0.10179293155670166, -0.013768227770924568, -0.09543895721435547, 0.10333799570798874, 0.16237851977348328, 0.15357093513011932, -0.18651612102985382, 0.18250878155231476, 0.14214518666267395, -0.208616241812706, 0.09000461548566818, -0.12933868169784546, -0.09569640457630157, -0.21669620275497437, 0.10337749868631363, -0.05845707282423973, 0.1324498951435089, 0.18245625495910645, 0.05721171572804451, 0.049821123480796814, -0.007173509802669287, 0.043428268283605576, -0.08774574100971222, -0.0033452657517045736, -0.012099812738597393, -0.037091467529535294, 0.04230273887515068, 0.09191518276929855, -0.013661297969520092, 0.015995178371667862, 0.006177634932100773, 0.015895754098892212, -0.1264336109161377, -0.02327864058315754, -0.00011382074444554746, 0.19132141768932343, 0.054717447608709335, -0.03514775633811951, -0.08045066148042679, 0.029517343267798424, -0.1752295196056366, -0.05287453159689903, -0.07166920602321625, 0.04715065658092499, -0.015854915603995323, 0.0672716349363327, -0.0848608911037445, 0.0979815274477005, 0.18179674446582794, 0.08490604162216187, -0.08092176914215088, 0.20923255383968353, 0.09988590329885483, 0.0065375929698348045, -0.008767732419073582, -0.09096569567918777, 0.28687193989753723, -0.06954684853553772, 0.14533594250679016, 0.006132759153842926, -0.17991094291210175, 0.026779653504490852, 0.10175925493240356, -0.02971423603594303, 0.15910588204860687, -0.04133882373571396, 0.18589352071285248, -0.11910136044025421, -0.017220282927155495, 0.15270626544952393, -0.1068028137087822, -0.17271025478839874, 0.27582502365112305, -0.11965238302946091, -0.017457904294133186, 0.10036440193653107, 0.04513699561357498, 0.009852839633822441, 0.12725846469402313, 0.06060309708118439, -0.0934329405426979, 0.007076201029121876, -0.002388163236901164, -0.05021483078598976, -0.10699111968278885, 0.0024510084185749292, 0.22361451387405396, -0.04792623966932297, 0.0021427012979984283, -0.10095417499542236, -0.19963452219963074, -0.0702119842171669, -0.027034970000386238, 0.14178039133548737, -0.09999752789735794, -0.05316517874598503, -0.03198842331767082, -0.011689545586705208, -0.1788940280675888, -0.050077784806489944, -0.07589956372976303, -0.04789060354232788, -0.04460056871175766, -0.0486876554787159, 0.2133709043264389, -0.040649399161338806, -0.10402056574821472, -0.0061165629886090755, 0.22422809898853302, -0.12476301938295364], [-0.09482701122760773, 0.13585618138313293, 0.08719279617071152, -0.01619492471218109, 0.0627298429608345, 0.07765240967273712, 0.023844389244914055, -0.17005930840969086, -0.1783977448940277, -0.24369972944259644, 0.049874451011419296, -0.01066387165337801, 0.1673724204301834, 0.10362782329320908, 0.044943228363990784, 0.14667364954948425, -0.00819105189293623, 0.08402524888515472, -0.16520661115646362, -0.13800711929798126, -0.12210186570882797, -0.14194771647453308, 0.019813988357782364, -0.09764806926250458, -0.13362377882003784, -0.06756741553544998, -0.01841697096824646, -0.052025195211172104, -0.16057227551937103, -0.18318594992160797, -0.1013120636343956, -0.0310662928968668, 0.015602414496243, -0.020909521728754044, -0.04016190767288208, -0.06575600057840347, -0.04254616051912308, 0.04887640103697777, 0.14368416368961334, -0.024463964626193047, -0.07499866187572479, -0.011585297994315624, -0.0504557341337204, 0.04347680136561394, 0.06764943152666092, -0.03153293579816818, -0.15074783563613892, -0.20795007050037384, -0.16718094050884247, -0.08212432265281677, 0.09129581600427628, -0.14226403832435608, -0.008164042606949806, -0.019425779581069946, 0.09737405925989151, -0.04483211413025856, -0.021748006343841553, 0.0675283819437027, 0.08511663973331451, 0.04385572299361229, -0.002025290159508586, -0.0018029999919235706, 0.09082785993814468, -0.05971461907029152, -0.00381277478300035, -0.09308264404535294, 0.03867620974779129, 0.0050096940249204636, -0.09293574839830399, -0.08645705133676529, 0.10821695625782013, -0.16220641136169434, -0.1019233837723732, 0.05831236019730568, -0.14756304025650024, 0.22168534994125366, 0.1801258772611618, -0.2297457903623581, 0.006725233513861895, -0.04445382580161095, -0.16888757050037384, 0.11425323039293289, 0.1863330751657486, 0.11060170829296112, -0.12658490240573883, -0.1271742880344391, 0.20997664332389832, -0.1845203936100006, 0.03833494707942009, 0.07320976257324219, 0.10446785390377045, -0.1226155161857605, -0.12931624054908752, -0.2113383710384369, 0.15128439664840698, -0.22339442372322083, 0.09248525649309158, 0.02022739313542843, 0.0921591967344284, 0.1668674349784851, -0.16460399329662323, 0.02162129618227482, 0.001854509231634438, 0.04857152700424194, -0.0052848742343485355, -0.1492805778980255, -0.1818690150976181, -0.11515019088983536, -0.1206885576248169, -0.11223433911800385, 0.04864337667822838, -0.07943284511566162, 0.052654143422842026, -0.05492947995662689, -0.12070907652378082, 0.04724838584661484, -0.08839170634746552, 0.042080771178007126, 0.18907596170902252, -0.06182106211781502, -0.21494312584400177, -0.06459631025791168, 0.1495516002178192, -0.1557701975107193, -0.07693227380514145, -0.15500745177268982, -0.08714832365512848, -0.07500366866588593], [-0.010784858837723732, -0.11808326095342636, -0.06346197426319122, -0.16070421040058136, 0.03873106464743614, -0.038779366761446, 0.038686927407979965, 0.1610802412033081, 0.11940804868936539, 0.12233526259660721, 0.11784429103136063, -0.18916164338588715, 0.01656603440642357, 0.04246126487851143, 0.10859426856040955, -0.17739203572273254, -0.13201163709163666, -0.17487859725952148, 0.11333447694778442, 0.18085351586341858, -0.022734005004167557, 0.0675649493932724, 0.046307310461997986, 0.033937059342861176, -0.009824294596910477, -0.14673033356666565, 0.08963003754615784, 0.11882003396749496, 0.14656536281108856, 0.10663779079914093, 0.036650341004133224, 0.17575232684612274, 0.0035727545619010925, -0.0071875774301588535, -0.018748439848423004, 0.1660032868385315, 0.019113689661026, -0.10077469050884247, -0.06244681403040886, 0.04903000593185425, 0.062143974006175995, -0.11732650548219681, -0.1373521387577057, 0.022930461913347244, -0.06530407071113586, -0.008609319105744362, -0.2410755157470703, 0.08402615785598755, -0.025585662573575974, 0.06810636818408966, 0.017261691391468048, 0.09007249027490616, 0.11939407140016556, 0.13459984958171844, -0.06915128231048584, 0.102179154753685, -0.10142634809017181, 0.03381926193833351, -0.09307602047920227, -0.09468892961740494, -0.19486820697784424, 0.1055731549859047, -0.11206633597612381, -0.13592611253261566, 0.17893105745315552, -0.10330028831958771, 0.03798539936542511, 0.05055508390069008, 0.0004853858845308423, 0.1252502053976059, -0.18020454049110413, 0.11224935948848724, 0.06471502035856247, 0.08853349089622498, 0.1100226566195488, -0.05183591693639755, -0.013142094016075134, -0.0759868398308754, -0.1042439416050911, -0.03537890687584877, 0.15771257877349854, -0.07713332027196884, -0.14794102311134338, 0.05037238448858261, -0.09741460531949997, 0.08383233100175858, 0.028644753620028496, 0.11428530514240265, 0.14383405447006226, -0.05787990242242813, -0.0847095474600792, -0.07152920961380005, -0.0527888685464859, -0.022066039964556694, 0.013656185939908028, -0.08806796371936798, -0.17602723836898804, 0.017092308029532433, -0.03355308249592781, 0.11602749675512314, 0.09595101326704025, 0.11494312435388565, -0.11411208659410477, 0.08180461823940277, 0.014337289147078991, 0.11565026640892029, -0.13699471950531006, -0.1901485025882721, -0.17463983595371246, -0.14594773948192596, 0.0963766947388649, -0.06192554160952568, -0.10634717345237732, -0.14508405327796936, 0.14542676508426666, -0.12793949246406555, 0.023503191769123077, -0.14385293424129486, -0.12102137506008148, 0.12241488695144653, -0.08738158643245697, 0.1739901602268219, -0.15318891406059265, 0.0039009209722280502, -0.16336040198802948, 0.14097453653812408, -0.16580891609191895, 0.1330193728208542], [0.0517377108335495, -0.08106137067079544, 0.05781872197985649, -0.06853535771369934, -0.003731018863618374, 0.004526352044194937, -0.009085879661142826, 0.12831497192382812, 0.05856640636920929, -0.029937375336885452, 0.10637646913528442, -0.1084456518292427, 0.04218509793281555, -0.04436947777867317, 0.16532231867313385, -0.07839491963386536, 0.026406455785036087, 0.15322577953338623, 0.05248931795358658, -0.03305772319436073, 0.016606224700808525, -0.050953805446624756, -0.1579967439174652, 0.10258513689041138, 0.17442047595977783, 0.07133765518665314, 0.02736715041100979, 0.12370295822620392, -0.05924768000841141, 0.05919817462563515, 0.04005515202879906, 0.07016757875680923, -0.038179151713848114, -0.010143714025616646, 0.0063170818611979485, 0.03905538097023964, 0.02713913284242153, -0.04856903851032257, 0.039965495467185974, 0.02223893254995346, -0.06628932058811188, -0.13710370659828186, -0.008807471953332424, 0.0037196052726358175, -0.0576261542737484, -0.05632119998335838, 0.010957730002701283, -0.037608496844768524, -0.04705952852964401, 0.15412676334381104, 0.0005400052177719772, 0.039339229464530945, 0.009759309701621532, -0.056839071214199066, 0.03542836382985115, -0.12827453017234802, -0.09506135433912277, -0.033243577927351, 0.040492840111255646, -0.006977383978664875, -0.013619008474051952, 0.018208753317594528, -0.09114976227283478, 0.02520478330552578, 0.20442341268062592, 0.008943065069615841, -0.015168940648436546, -0.19674190878868103, -0.002019273117184639, 0.07357726246118546, 0.12299396097660065, -0.19703629612922668, 0.16974341869354248, 0.18013808131217957, -0.15787717700004578, -0.09603660553693771, 0.1479015201330185, 0.2079775482416153, 0.0907604992389679, -0.1194152981042862, 0.04884694889187813, -0.07968097180128098, 0.111883744597435, -0.12072023749351501, -0.09919712692499161, 0.0936647355556488, -0.12729594111442566, -0.11271487176418304, 0.002283720066770911, -0.09550046175718307, -0.16627903282642365, -0.07560380548238754, -0.09527281671762466, 0.14690127968788147, -0.08957087993621826, 0.034028712660074234, 0.11527004837989807, -0.00011830980656668544, -0.13876155018806458, -0.01500088069587946, 0.08359634876251221, 0.01932518184185028, 0.1467648148536682, 0.030276620760560036, -0.012715882621705532, 0.07785303145647049, -0.04604256525635719, 0.14669595658779144, -0.05780971795320511, -0.09675539284944534, 0.052305907011032104, -0.18028560280799866, 0.15356604754924774, 0.1766536682844162, -0.018486861139535904, 0.07679833471775055, 0.03779524192214012, 0.1784573495388031, -0.09845762699842453, 0.17117393016815186, -0.08676369488239288, -0.016495687887072563, 0.0754576027393341, -0.03749026358127594, 0.0028907463420182467, 0.24717827141284943, -0.05876639857888222, 0.04228569194674492], [0.017265770584344864, 0.027593011036515236, -0.03774867206811905, -0.14941756427288055, 0.10494137555360794, 0.0036409380845725536, -0.1093040257692337, 0.021636517718434334, 0.011619414202868938, 0.12168062478303909, -0.15840093791484833, 0.08737069368362427, 0.07950066030025482, -0.13832323253154755, 0.0966498851776123, -0.1397525817155838, -0.17871426045894623, -0.007610192988067865, -0.13111068308353424, 0.04139627888798714, 0.07397829741239548, -0.08208522945642471, 0.03267393261194229, 0.034529946744441986, 0.05071346461772919, -0.1752726286649704, -0.07940148562192917, -0.012343740090727806, 0.10230118781328201, 0.13230584561824799, -0.010438724420964718, 0.036699432879686356, -0.14114293456077576, 0.06793525069952011, -0.042844321578741074, 0.023483555763959885, 0.0227653831243515, -0.04181002080440521, 0.07072160392999649, -0.1129927709698677, -0.0014110138872638345, -0.05711466446518898, -0.006542940158396959, -0.011039437726140022, 0.05553276091814041, 0.038033898919820786, 0.01866423897445202, 0.028300438076257706, 0.18142202496528625, -0.10729309171438217, -0.19340002536773682, -0.037209123373031616, 0.034392163157463074, 0.07771669328212738, 0.0026078233495354652, 0.08415497839450836, 0.1544959396123886, 0.14729373157024384, 0.004850515630096197, -0.049138132482767105, 0.04967240244150162, -0.06012573838233948, -0.02323750965297222, 0.06126128137111664, 0.054228026419878006, 0.18935085833072662, 0.04410998150706291, 0.1413973718881607, 0.08979086577892303, -0.12847831845283508, -0.15367060899734497, 0.03683403134346008, 0.15445096790790558, -0.14824926853179932, 0.17393581569194794, 0.00598339457064867, -0.16590210795402527, -0.07152946293354034, 0.11878456175327301, -0.14383311569690704, -0.034256741404533386, -0.04134945198893547, 0.08514062315225601, -0.06192445009946823, 0.07780877500772476, 0.19086231291294098, -0.05350926145911217, -0.04847342148423195, 0.139059916138649, -0.17824868857860565, 0.19862307608127594, -0.12880195677280426, 0.007750402670353651, 0.06948372721672058, -0.11696547269821167, -0.14231421053409576, 0.12960924208164215, -0.15147756040096283, 0.012504586018621922, 0.03338669240474701, 0.16269299387931824, -0.12217503786087036, -0.09175260365009308, 0.03121853806078434, 0.04427143186330795, 0.06680210679769516, 0.15317538380622864, -0.14909476041793823, -0.09741389006376266, -0.07732051610946655, 0.13096919655799866, 0.17655622959136963, -0.05424439162015915, -0.07932564616203308, 0.018383104354143143, -0.02170262672007084, -0.09275365620851517, 0.09994911402463913, 0.0014710731338709593, 0.11739896237850189, -0.03855746239423752, -0.04553958401083946, -0.10617578029632568, 0.07145915925502777, -0.07248759269714355, 0.04813708737492561, 0.10764099657535553, -0.0959753543138504], [0.1125578060746193, 0.07690297812223434, 0.07515908032655716, -0.09294028580188751, -0.0528947114944458, -0.13998959958553314, -0.012490923516452312, 0.13028094172477722, 0.1356649100780487, -0.0024393927305936813, 0.06457234919071198, 0.05089894309639931, -0.018804557621479034, 0.007685128133744001, 0.06885845214128494, -0.13797198235988617, -0.15198297798633575, 0.13943259418010712, 0.21657854318618774, 0.06206421181559563, 0.033664945513010025, -0.001707959221675992, 0.09396480023860931, -0.056088369339704514, -0.0530439056456089, 0.14868471026420593, -0.14643630385398865, 0.2047109752893448, 0.1000548005104065, 0.035077404230833054, 0.05803294852375984, -0.00012027532648062333, 0.03045082464814186, 0.1667729765176773, -0.06396044045686722, 0.00015215073653962463, 0.07598979771137238, 0.0635756105184555, -0.06153084337711334, -0.034394435584545135, 0.06698107719421387, -0.015715960413217545, -0.06999407708644867, 0.05301523581147194, -0.026213109493255615, 0.0574573390185833, 0.15026086568832397, 0.023875372484326363, -0.0026883797254413366, -0.17922717332839966, -0.15464399755001068, 0.18024848401546478, 0.13555318117141724, 0.06911192834377289, -0.05204811319708824, -0.07159309089183807, 0.00808396004140377, 0.030558748170733452, -0.014848407357931137, -0.0445418581366539, -0.19195066392421722, -0.04447587579488754, -0.08629918098449707, -0.10740197449922562, 0.07045585662126541, -0.03610871359705925, -0.10913246124982834, 0.034326061606407166, -0.02932675927877426, -0.14167548716068268, 0.07028500735759735, 